/* Generated by Edge Impulse
 *
 * Permission is hereby granted, free of charge, to any person obtaining a copy
 * of this software and associated documentation files (the "Software"), to deal
 * in the Software without restriction, including without limitation the rights
 * to use, copy, modify, merge, publish, distribute, sublicense, and/or sell
 * copies of the Software, and to permit persons to whom the Software is
 * furnished to do so, subject to the following conditions:
 *
 * The above copyright notice and this permission notice shall be included in
 * all copies or substantial portions of the Software.
 *
 * THE SOFTWARE IS PROVIDED "AS IS", WITHOUT WARRANTY OF ANY KIND, EXPRESS OR
 * IMPLIED, INCLUDING BUT NOT LIMITED TO THE WARRANTIES OF MERCHANTABILITY,
 * FITNESS FOR A PARTICULAR PURPOSE AND NONINFRINGEMENT. IN NO EVENT SHALL THE
 * AUTHORS OR COPYRIGHT HOLDERS BE LIABLE FOR ANY CLAIM, DAMAGES OR OTHER
 * LIABILITY, WHETHER IN AN ACTION OF CONTRACT, TORT OR OTHERWISE, ARISING FROM,
 * OUT OF OR IN CONNECTION WITH THE SOFTWARE OR THE USE OR OTHER DEALINGS IN THE
 * SOFTWARE.
 */
// Generated on: 24.02.2022 12:17:28

#include <stdio.h>
#include <stdlib.h>
#include <vector>
#include "edge-impulse-sdk/tensorflow/lite/c/builtin_op_data.h"
#include "edge-impulse-sdk/tensorflow/lite/c/common.h"
#include "edge-impulse-sdk/tensorflow/lite/micro/micro_mutable_op_resolver.h"
#include "edge-impulse-sdk/porting/ei_classifier_porting.h"

#if EI_CLASSIFIER_PRINT_STATE
#if defined(__cplusplus) && EI_C_LINKAGE == 1
extern "C" {
    extern void ei_printf(const char *format, ...);
}
#else
extern void ei_printf(const char *format, ...);
#endif
#endif

#if defined __GNUC__
#define ALIGN(X) __attribute__((aligned(X)))
#elif defined _MSC_VER
#define ALIGN(X) __declspec(align(X))
#elif defined __TASKING__
#define ALIGN(X) __align(X)
#endif

using namespace tflite;
using namespace tflite::ops;
using namespace tflite::ops::micro;

namespace {

constexpr int kTensorArenaSize = 13168;

#if defined(EI_CLASSIFIER_ALLOCATION_STATIC)
uint8_t tensor_arena[kTensorArenaSize] ALIGN(16);
#elif defined(EI_CLASSIFIER_ALLOCATION_STATIC_HIMAX)
#pragma Bss(".tensor_arena")
uint8_t tensor_arena[kTensorArenaSize] ALIGN(16);
#pragma Bss()
#elif defined(EI_CLASSIFIER_ALLOCATION_STATIC_HIMAX_GNU)
uint8_t tensor_arena[kTensorArenaSize] ALIGN(16) __attribute__((section(".tensor_arena")));
#else
#define EI_CLASSIFIER_ALLOCATION_HEAP 1
uint8_t* tensor_arena = NULL;
#endif

static uint8_t* tensor_boundary;
static uint8_t* current_location;

template <int SZ, class T> struct TfArray {
  int sz; T elem[SZ];
};
enum used_operators_e {
  OP_CONV_2D, OP_MAX_POOL_2D, OP_RESHAPE, OP_FULLY_CONNECTED, OP_SOFTMAX,  OP_LAST
};
struct TensorInfo_t { // subset of TfLiteTensor used for initialization from constant memory
  TfLiteAllocationType allocation_type;
  TfLiteType type;
  void* data;
  TfLiteIntArray* dims;
  size_t bytes;
  TfLiteQuantization quantization;
};
struct NodeInfo_t { // subset of TfLiteNode used for initialization from constant memory
  struct TfLiteIntArray* inputs;
  struct TfLiteIntArray* outputs;
  void* builtin_data;
  used_operators_e used_op_index;
};

TfLiteContext ctx{};
TfLiteTensor tflTensors[22];
TfLiteEvalTensor tflEvalTensors[22];
TfLiteRegistration registrations[OP_LAST];
TfLiteNode tflNodes[10];

const TfArray<4, int> tensor_dimension0 = { 4, { 1,32,32,3 } };
const TfArray<1, float> quant0_scale = { 1, { 0.0039215688593685627, } };
const TfArray<1, int> quant0_zero = { 1, { -128 } };
const TfLiteAffineQuantization quant0 = { (TfLiteFloatArray*)&quant0_scale, (TfLiteIntArray*)&quant0_zero, 0 };
const ALIGN(8) int32_t tensor_data1[2] = { -1, 512, };
const TfArray<1, int> tensor_dimension1 = { 1, { 2 } };
const ALIGN(16) int32_t tensor_data2[8] = { 4004, 3873, 671, -6404, 482, -7637, 8207, -7035, };
const TfArray<1, int> tensor_dimension2 = { 1, { 8 } };
const TfArray<8, float> quant2_scale = { 8, { 8.2278311310801655e-06, 7.1602607931708917e-06, 9.9771514214808121e-06, 7.9561823440599255e-06, 7.8431930887745693e-06, 7.489264589821687e-06, 8.5083838712307625e-06, 7.5644102253136225e-06, } };
const TfArray<8, int> quant2_zero = { 8, { 0,0,0,0,0,0,0,0 } };
const TfLiteAffineQuantization quant2 = { (TfLiteFloatArray*)&quant2_scale, (TfLiteIntArray*)&quant2_zero, 0 };
const ALIGN(16) int32_t tensor_data3[16] = { 5675, 4169, -2233, -7019, 4391, -6799, -6592, -8131, 11400, -7672, 4593, -9066, -3414, -4401, 3261, 1488, };
const TfArray<1, int> tensor_dimension3 = { 1, { 16 } };
const TfArray<16, float> quant3_scale = { 16, { 6.853572358522797e-06, 6.0603410929616075e-06, 6.7358123487792909e-06, 6.7368350755714346e-06, 7.7935028457432054e-06, 8.2819105955422856e-06, 6.4088876570167486e-06, 7.1058116191125009e-06, 7.4500862865534145e-06, 6.6061043071385939e-06, 7.9545725384377874e-06, 6.6620027610042598e-06, 9.6926287369569764e-06, 8.3846061897929758e-06, 7.3259734563180245e-06, 6.7891724029323086e-06, } };
const TfArray<16, int> quant3_zero = { 16, { 0,0,0,0,0,0,0,0,0,0,0,0,0,0,0,0 } };
const TfLiteAffineQuantization quant3 = { (TfLiteFloatArray*)&quant3_scale, (TfLiteIntArray*)&quant3_zero, 0 };
const ALIGN(16) int32_t tensor_data4[32] = { -1097, -366, -6878, 1522, 16084, -7964, 5622, 6046, 11358, -6239, 7464, 5740, -6549, -7352, 5329, -2157, -4312, 6883, -1958, -4519, 5141, 6222, -2791, 3168, -6498, 4386, -5928, 14311, 2056, -2639, -5316, -6389, };
const TfArray<1, int> tensor_dimension4 = { 1, { 32 } };
const TfArray<32, float> quant4_scale = { 32, { 7.525704859290272e-06, 7.6172646004124545e-06, 7.0384676291723736e-06, 8.0285408330382779e-06, 6.5668577917676885e-06, 7.2674415605433751e-06, 6.3939492065401282e-06, 6.5389199335186277e-06, 7.6681244536302984e-06, 9.5791465355432592e-06, 6.1494442888943013e-06, 6.1693085626757238e-06, 7.096206445567077e-06, 8.2748647400876507e-06, 6.7688092713069636e-06, 6.3513512031931896e-06, 7.7425747804227285e-06, 7.0759165282652248e-06, 7.5305129030311946e-06, 6.6981656345888041e-06, 1.2183773833385203e-05, 7.6799869930255227e-06, 9.0740259111043997e-06, 6.9200400503177661e-06, 7.5813341027242132e-06, 7.1987724368227646e-06, 8.675423487147782e-06, 7.3252094807685353e-06, 7.2591078605910297e-06, 9.3780090537620708e-06, 7.111699233064428e-06, 7.1112340265244711e-06, } };
const TfArray<32, int> quant4_zero = { 32, { 0,0,0,0,0,0,0,0,0,0,0,0,0,0,0,0,0,0,0,0,0,0,0,0,0,0,0,0,0,0,0,0 } };
const TfLiteAffineQuantization quant4 = { (TfLiteFloatArray*)&quant4_scale, (TfLiteIntArray*)&quant4_zero, 0 };
const ALIGN(16) int32_t tensor_data5[64] = { 3974, -1002, -1261, 1901, -1217, -890, 2635, -341, 3034, 2443, -774, 1997, 3743, -1369, 2807, -1658, -1623, 2880, 2965, 3129, -1247, 2833, 2195, 2514, 2261, 2666, -613, 1498, 3031, -1736, -2141, -135, 1372, 3019, 2001, -526, -1473, 3232, -20, -749, -449, -1470, -1394, 2414, 2717, -1133, -1475, 2935, 2611, -884, -1149, 2083, -787, -835, 2271, 2137, 2904, 3238, 1822, -1447, 2308, -1333, 2988, 1705, };
const TfArray<1, int> tensor_dimension5 = { 1, { 64 } };
const TfArray<1, float> quant5_scale = { 1, { 1.5799598259036429e-05, } };
const TfArray<1, int> quant5_zero = { 1, { 0 } };
const TfLiteAffineQuantization quant5 = { (TfLiteFloatArray*)&quant5_scale, (TfLiteIntArray*)&quant5_zero, 0 };
const ALIGN(8) int32_t tensor_data6[2] = { -432, 432, };
const TfArray<1, int> tensor_dimension6 = { 1, { 2 } };
const TfArray<1, float> quant6_scale = { 1, { 6.3449406297877431e-05, } };
const TfArray<1, int> quant6_zero = { 1, { 0 } };
const TfLiteAffineQuantization quant6 = { (TfLiteFloatArray*)&quant6_scale, (TfLiteIntArray*)&quant6_zero, 0 };
const ALIGN(16) int8_t tensor_data7[64*512] = { 
  39, -7, -2, -46, 81, -41, -18, -48, -19, -10, 40, -4, -22, -2, 13, 4, -16, -51, -11, -31, -15, -14, -31, 58, -11, 53, -2, 78, -5, 0, -32, -17, 15, 25, 8, -27, 10, -57, 15, -34, -40, -14, 15, 21, 16, -25, -25, -40, 1, -21, 42, -27, 33, 23, -34, -5, 29, -40, 14, 110, -21, -37, 15, -6, 25, -20, -11, -43, 69, -31, -46, 13, -16, 4, -8, 33, -30, 9, 10, -12, -44, -15, 33, 15, 47, 33, -25, 72, -11, 13, -27, 111, 13, -14, -27, 16, 7, -16, 43, -27, 68, -24, 36, -4, -17, -11, -1, 11, -26, -9, -23, -7, -41, -13, 11, -50, 61, -6, -58, 49, 14, -11, -18, 45, 56, -10, 16, -43, 56, 18, 28, -5, 16, 32, 2, 27, 45, 40, -7, 12, 14, -28, 21, 35, 31, 5, 44, 17, 12, 8, -14, 69, 58, 40, 17, 87, 51, 29, -18, -23, 20, -36, -24, 7, 71, 33, 17, 14, 93, 12, 40, 3, -50, -23, 29, 28, -12, 31, 44, -22, 72, -2, -33, 10, 13, -22, -22, 115, 5, 47, -18, -35, 2, -15, 29, -31, 39, -3, 2, 41, 84, -12, 66, 10, 1, -45, -27, -34, 53, -3, 27, -9, 100, 42, 36, 16, 26, -20, -12, 127, -18, -15, -56, 12, 8, 28, -36, 42, 28, -35, 81, -3, 41, -49, -21, 8, -8, 9, 9, -29, 53, -22, 42, 14, 14, -17, 8, -26, -48, -21, 3, 89, 8, 0, 8, 3, -51, -10, 31, 45, 16, 25, -2, 13, 18, -37, 40, 15, 12, -9, 49, -24, -28, 36, -12, -32, -22, 39, 20, -34, 4, 13, 19, 7, 39, -15, 17, -28, 17, -25, -41, -29, 66, 41, -13, 63, 82, 2, 58, 13, -5, -13, 39, -26, -2, -18, -22, 1, 73, 47, 41, 55, -16, -24, -38, 50, 21, 12, 4, 13, 1, 16, -40, 6, 70, 12, 42, 49, 35, -5, 51, -7, 27, 8, -24, 11, 42, -24, 19, -9, 80, -17, 39, 12, -3, 35, 1, 84, 57, 2, 39, 29, -55, 23, -12, 4, 84, -34, 39, 16, 73, -14, -31, 42, 12, -44, -22, 50, -20, 63, 53, -29, 72, -31, -14, 33, 15, 8, 40, 77, -9, 35, 31, -12, -24, 3, -58, 23, -20, -12, 42, -3, 126, 39, 3, 22, 14, -41, -16, -37, -34, -19, 61, 39, -25, -3, 43, 51, -49, -15, 33, 12, 41, 35, 48, 42, -24, 12, 4, 31, 7, -1, 15, 61, 91, 54, 64, 35, -27, 4, 36, 40, 27, 41, 62, 33, 13, 30, 16, 25, 39, 23, -31, 31, 29, -4, -31, -28, -9, 34, -9, 45, -29, 35, 19, 15, 23, 0, 9, 31, -7, -2, 9, -21, -2, 1, 44, 11, -28, 46, -4, -7, -25, 11, 0, 107, 22, 32, 7, -15, -23, -17, 27, -19, -42, -28, 10, 50, 79, -10, -10, 46, 3, 32, -22, -32, 1, -28, -12, -2, -28, -7, 21, 34, 56, 5, 50, 26, 50, 38, -12, 35, 
  -24, 39, 12, -15, -64, 57, -11, -27, 14, 39, 11, -24, 22, 45, -35, 9, 21, -20, 19, 28, 9, -37, 22, 31, -20, 12, -8, -19, 18, 27, -33, -16, -41, 16, 29, 16, -37, 8, -33, 13, 34, 46, 2, -2, -21, -17, 16, -7, -21, 29, 32, 38, -23, 34, 15, -6, 38, -18, -4, -60, -39, 47, 52, 40, -3, -19, 1, 35, -9, 42, 12, 27, -19, 12, -2, 35, -8, 13, 22, 36, 10, 46, 48, -31, -36, 13, 2, -47, 13, -32, -10, -76, 16, -16, -13, 22, -32, 35, 39, 44, -54, 27, -31, 51, 22, 16, 10, -4, -19, -8, 57, 5, 24, 20, 8, -24, -68, -40, 43, -49, 10, -36, 2, -23, -2, -17, 56, -22, -37, 26, 33, 40, -39, -18, 39, -35, -56, -29, -46, 25, 28, -7, 1, -42, -28, -41, -55, 27, 39, 9, -28, -15, -22, -33, -32, -56, -19, 26, 38, 8, 17, 0, 39, -1, -45, -1, -41, -40, -2, 36, 29, -40, 34, 1, 11, 31, 29, 33, -40, 25, -47, -12, 17, 49, 48, 6, 56, -52, -47, -25, -15, 35, -31, -26, 44, -29, -11, 4, -23, 41, -57, 39, -5, -43, 2, -7, 30, 38, 4, 13, -58, -17, -12, -34, -47, 12, -22, -42, 37, -35, -3, 31, 21, -23, 9, -34, 14, 41, -2, 9, -47, 1, -12, -18, 38, 31, -8, 38, -19, -17, 26, -4, 2, 34, -7, 27, -34, -16, 19, -39, 34, 5, 18, 8, 12, 16, 47, 8, 9, -22, -18, -29, -22, -47, -49, 4, 7, -30, 12, -20, -54, 10, -19, 16, -5, 2, -20, 35, 32, -1, 44, -29, -27, -8, -38, -28, 11, 16, -10, -18, 15, 34, -58, -4, -13, -16, 19, 15, -44, 17, 26, -21, -10, 47, 8, -22, -28, 19, -19, 55, 21, 47, 68, 16, -12, -63, -62, -27, 42, -21, 0, 3, 29, 39, -5, 29, -35, 13, -7, 20, 0, -20, 30, 46, 0, 37, 42, -33, -63, -27, -12, 3, -8, 11, -9, 11, 44, -57, -5, 13, -21, 32, 0, -36, 9, 26, 3, -44, -60, 8, 12, -11, -29, -39, 21, -15, 15, 6, 27, -60, 10, -20, 0, 39, -12, 20, -34, 13, -26, -26, 23, 31, 14, -22, 4, -56, 9, -19, -12, -13, -34, -52, -25, -13, -56, 10, 29, 34, 10, -4, 31, 15, -24, -35, 11, -32, -10, 3, -29, 25, 16, 13, -31, 9, 39, 42, -13, -42, 30, 29, 30, -1, 17, 26, -32, -33, -17, 35, -1, -23, -1, 30, 26, 19, -47, 7, 26, -12, -6, 30, -26, -22, -8, 3, 4, -23, 3, 1, -12, -38, 25, -26, 0, -41, -24, 34, -27, -45, -43, 1, 25, -17, 1, 33, 36, 10, -51, 22, -24, 3, 11, 46, 4, -34, 27, -13, -35, -40, 36, 0, 22, -49, 26, 29, 37, 12, -3, 13, -23, -27, 19, -26, -37, -1, 9, 33, 0, -11, -31, 24, -31, -13, -34, -15, -15, -29, 7, -69, -33, -14, 24, 20, 
  -27, 3, 3, 9, -34, -4, 22, 33, 52, 65, -21, 1, 27, 44, 23, 43, 25, 50, 18, 19, 29, -59, 26, 35, -24, 7, 38, -45, 34, 57, 15, -3, -6, 14, -29, 5, 32, -6, 18, 4, 16, -13, -13, 22, 45, 45, 15, 0, 0, -19, 45, 64, 10, -4, 23, 19, 25, -7, 12, -55, -27, -19, 38, 0, 38, 53, 40, 10, -30, 69, 36, 51, 27, 13, 56, -21, 7, -4, -3, 62, -22, -8, 30, 3, -14, -42, 31, -38, 30, -6, -20, -57, -4, 56, 27, 8, -1, 11, 11, -18, -24, -12, 43, -15, -30, -12, -8, 29, -21, 40, 16, 41, -9, -26, 1, -10, -50, -25, 35, -36, 16, 28, -25, -5, 13, 48, 45, 26, 34, 24, 33, -37, -33, -9, 30, -60, -46, 29, 4, -56, 53, 35, 19, 29, -18, -19, -42, 10, 22, -28, 24, -29, -11, 2, 54, -32, 7, -21, 2, 61, 46, 12, 46, 8, 9, 2, -33, -43, -13, 16, 26, -37, -14, 49, -39, -23, 4, -6, -47, 19, -24, -38, 30, 35, 15, 11, 60, 6, -2, 7, -25, -6, 33, -42, 51, -20, -1, -5, -34, 4, -66, 46, -31, -2, -15, 14, -7, -25, -21, 0, 6, 9, -53, 6, -2, -34, -1, -7, -24, -13, -25, -3, 43, 58, 39, -28, 56, -27, -58, -34, -21, -5, -33, 15, 27, 41, 12, 2, 30, -45, -4, 28, 6, 7, -5, -34, -17, 20, 4, -48, 4, -23, -29, -11, 7, 48, 23, -26, 12, -27, 1, 26, -22, -48, -36, 46, 4, 9, -8, 0, -23, -1, 21, -4, -34, 5, -30, -21, 13, 2, 3, -10, -21, -59, -27, 18, -17, 60, -18, -30, -5, 33, 4, 18, -27, -17, -7, 3, -31, -52, -14, -2, -36, 17, -8, -40, 0, -21, 2, 54, 1, -24, 45, -53, 22, -65, 6, -34, 35, 9, 51, 32, 18, -1, -47, -27, -11, -54, -18, 50, -25, 2, 50, 57, -10, 18, 19, -32, 1, 24, -55, -4, -31, 21, 61, 19, 20, -46, -14, -38, 28, 2, 51, -38, 46, -20, -16, 22, -27, 21, -55, 3, -52, 18, 4, 27, 1, 16, -34, -69, 14, -31, 27, 44, -4, -38, 48, -26, 17, -75, -53, 28, 49, 46, 6, -12, -25, -23, -11, -26, -5, -10, -77, 6, -8, -24, 44, -17, -49, -48, -5, -10, -24, -9, 5, -5, 30, 54, 24, -64, 31, 20, -39, -20, -4, -39, 44, 11, 57, -50, -30, 17, -61, -5, -18, 33, -59, 1, 4, -14, 18, 12, 45, -45, 17, 26, 32, -11, 17, 30, 15, 6, 12, -5, -22, 23, 37, 37, 23, -58, 20, -28, 71, 31, -17, 21, -67, -4, -39, 14, 5, -29, -41, 35, 25, -1, -44, 30, -9, 19, 6, -28, 9, -7, 7, 7, -3, -39, 31, 7, 19, 19, 38, 24, 24, -29, 10, 38, -42, 15, -51, -14, -6, -22, 17, -11, 1, -12, 4, 10, 6, -4, -47, -20, -31, -32, -31, -62, 20, -35, 20, -27, 
  35, 5, 37, -37, 40, -36, -39, -15, 29, 33, 8, 20, -3, 28, 19, -51, -17, 27, -33, -16, 11, 52, -13, -5, 52, -38, -42, 63, 30, 30, 23, 39, 49, 28, -44, -33, 36, -27, 18, -34, 18, -35, 38, 10, -32, -5, -18, 22, -26, 23, 3, 37, 13, 17, -13, 32, 4, -1, -27, 42, -36, -36, 7, 3, 28, -6, -30, 27, 10, -14, -12, 16, 19, -47, 13, -36, -12, -22, -21, 6, -58, 33, -54, 7, 50, -30, -14, 62, 11, 20, -41, 50, -38, 8, 31, 23, 26, -43, -30, -41, 3, -11, -17, 11, -42, -41, 30, 7, -6, -39, -32, 16, 27, 6, -22, -6, 75, 25, -40, 6, 17, 14, 43, 11, 7, -21, -7, 33, 46, -24, -16, -42, -21, 6, 13, 27, 76, -27, -31, -8, -26, -46, 27, 40, 48, 45, 0, 3, -11, 33, -29, 11, -36, 21, 21, 23, 12, -31, -5, -34, 33, 38, -50, -17, 49, 13, 1, 14, -1, -5, -5, -12, 22, -41, 46, -33, 47, 13, 42, -33, 41, 33, -5, -22, -50, 10, -40, 52, -12, 41, -37, -47, -11, 35, 26, -15, -3, 34, 10, 48, 65, -33, 2, 33, -40, 29, 28, -17, 22, 56, 48, 34, 38, 37, -1, 50, -37, 20, -44, 10, -22, 24, -12, 12, 21, 0, -25, 30, 1, -47, -7, -36, 40, -3, -2, -14, -18, 39, 44, -12, 47, -23, 36, 20, 81, 10, -3, -19, -6, -18, -17, 74, -37, 0, -8, -19, 34, 54, -45, 3, -18, -30, 41, 23, -3, -28, 11, 67, 3, -33, -18, -36, 49, 24, 69, -37, -15, -38, 39, -17, -28, 14, 3, 4, 16, 19, 6, -25, 20, -3, -20, 2, 31, -35, -18, -7, 76, -44, -20, -9, -26, 18, 34, 43, 3, 17, 38, 13, 24, -19, 40, 18, 13, -17, 32, 19, -20, -11, 42, 10, -14, -26, -34, 8, 33, -38, 2, 35, 29, -40, -18, 32, 17, -23, -32, -33, 10, 67, 75, -20, 66, -23, 27, 6, 7, -19, 12, -3, 28, -45, 29, -12, -41, -13, 29, -29, 67, 6, 76, 9, 2, 16, -10, 2, -10, -35, 28, -25, 51, -1, 49, 36, 50, 32, 39, 29, 28, 36, -12, 41, 11, -31, -17, -19, 2, 46, 16, 26, -1, 3, 44, 48, 105, -15, 36, 44, 13, -25, 79, 28, 16, -17, -10, -37, 40, 37, 10, -12, -40, -14, 8, 6, 9, 44, -35, 11, -15, 63, -26, 32, 44, 11, -17, 20, 66, -25, 24, -23, -17, -7, 61, 35, 33, 5, -2, 36, -34, -18, 33, -39, 17, -6, 3, 58, 53, 34, -21, 42, 5, -1, -6, 16, -49, -24, 35, 57, 74, 6, 31, 57, -49, -1, -4, 35, 20, 34, 40, -15, 43, -14, -25, 8, 4, 41, 32, 1, -28, 35, 13, 44, 27, 30, -3, 61, -29, 26, -5, 2, -5, 48, -9, -14, -20, 24, -8, 37, 60, -3, -22, 18, 54, -17, 49, 12, 20, 33, -20, 47, -2, 2, -14, -37, 
  27, 20, 51, -8, 9, 21, 5, 16, 3, 57, -34, -23, 41, 26, 1, 26, -10, 15, -13, 58, -7, -37, 15, 18, 3, -23, 27, -51, 11, 34, 10, -14, 26, -16, 10, -13, 15, 6, 17, -14, -31, 75, 49, 3, 18, 39, 37, 0, 13, 57, 11, -12, -27, -22, 76, 15, -26, 42, -21, -12, -31, 10, -8, -7, 18, 5, -17, 14, -24, 55, 8, -15, 35, 51, -18, 47, 2, 63, 4, 0, 56, -10, 57, 24, -11, -29, 27, 16, -7, -20, 28, -56, 24, 57, 38, -10, -45, 5, -14, 32, -25, 59, 15, 45, -16, -5, 62, -13, -30, 56, 9, 41, 43, 45, 23, 54, -26, -14, 66, -55, -15, 23, 50, -39, 45, -4, 64, 18, -3, -3, 46, -15, -31, 58, 13, 2, -55, 56, -6, 27, 50, 30, -56, 18, 19, -22, -2, 74, -11, 27, 1, 21, 24, -22, 63, -69, -12, -28, 28, 33, -34, -5, 75, -16, -45, -13, -11, -70, 6, 33, 11, -6, 25, 63, 32, 0, 4, 3, -4, 51, -27, -12, -48, -23, 63, -57, 56, 11, -19, 25, 45, 29, 25, -33, 20, -18, -71, -3, -21, 26, -36, 76, -34, 35, 48, 1, 24, -37, 31, 33, -10, -12, -55, 3, -52, 15, 55, -33, -15, -11, -1, -2, 58, 73, 28, 11, 58, 22, 15, 18, -19, -39, -26, 54, -41, 1, -6, 38, 32, -18, -21, 2, -8, 26, -3, -4, -1, -20, -21, -40, 5, -58, -1, -2, 31, 54, 32, -29, 51, -21, 24, 16, 21, -47, -10, -1, 13, 11, 22, -5, -25, 5, -15, -6, 21, -23, 6, -3, 11, 52, 6, 18, 27, -31, 1, -28, 29, 37, 58, 10, 38, 10, -34, -14, -54, -20, -43, 59, -52, -15, 20, 5, -27, -25, -1, -41, 4, 16, -21, 54, -35, -4, 37, -66, 8, -4, 10, -25, 36, 54, 4, -14, 5, 1, -9, -12, 12, -48, -53, 9, 10, -57, 35, 53, 15, -19, 30, 3, -3, 0, -57, 45, -27, 39, 33, 15, 28, 27, -51, -9, 62, -5, 5, 43, 29, 12, -13, 33, -26, -41, -22, 32, -4, -4, 1, 52, -48, -25, -23, -34, -29, 29, -25, 20, -19, -25, 29, -36, 37, -59, -28, 13, 66, 35, 7, -45, -4, 24, 35, -8, -36, -6, -96, 24, 5, -17, 36, -20, -37, -18, 36, 31, -41, 42, 18, 4, -29, 44, 6, -54, 40, 9, 16, -10, 16, 13, 60, 17, 33, -6, -5, -28, -30, 26, 8, 43, 5, -10, -18, 43, -6, -22, 33, -13, 18, 47, 18, 22, 39, 41, 40, 30, -21, -17, 11, -8, 37, 21, 44, -4, -6, -17, 6, -31, -24, -22, -58, 24, -51, -5, 62, 18, -41, 15, -3, -50, 15, 12, -1, 19, 29, 22, 40, -34, 42, -27, -42, 6, -3, 5, 48, -16, 42, 23, 28, 10, -32, -40, -38, 8, -49, -51, 29, 17, -3, 11, 18, -5, -18, 4, -9, -26, 30, -28, -2, -52, -7, -30, -57, 34, -9, 32, 
  -39, 52, -15, 47, 30, -1, -4, 19, 43, 48, -31, -20, 15, 39, -28, 18, 14, -25, 7, -13, 5, 36, -13, 45, 22, 21, -29, -11, 49, -20, 3, -13, 32, 12, -11, 49, 48, 35, -21, 16, 2, 19, 20, 31, -6, 37, 7, -31, 31, 8, -18, 30, 10, -26, 50, 49, 36, 6, 19, -42, 34, -3, -10, 0, -17, -8, 20, 14, -27, 18, 33, -9, 36, -15, 4, 16, 30, -15, -30, 23, 28, 1, -16, 15, -46, 7, -7, -8, 42, 34, -24, -19, -10, 39, -12, 41, -24, 20, 5, -33, -25, -23, -11, -11, 11, 44, 25, 46, -37, -30, 11, -23, 47, -21, 38, -4, -26, -34, 38, -50, -7, 2, 30, -27, -2, 54, -6, -8, -10, -19, 38, 14, 45, 22, 16, -20, -65, 17, -35, -49, 6, 23, -16, -1, 42, -41, 9, 47, 44, -26, 16, -36, 11, 15, 13, -36, 4, 7, 4, 45, 34, -40, 0, 5, -19, -29, -55, 3, -26, -30, -43, 28, 47, 1, 24, 50, 21, 31, -30, -4, -19, -22, -16, -27, -11, -36, -2, 26, -44, 9, -5, -19, -17, 17, 29, 3, -11, 34, 24, -39, 13, 7, -11, 19, 35, 18, 26, 33, 13, 4, 2, 6, 21, -35, 34, 6, 20, 8, 47, -21, -30, -9, 53, 15, 5, -10, 28, 34, 8, -10, -58, 12, -58, 2, 19, -30, 18, 44, -12, 18, -12, -48, -48, -17, 2, -3, 28, -29, 9, -35, 39, -43, -20, 4, 53, 22, 21, -40, 9, -40, 16, 0, -52, -68, -34, -18, -35, 6, 16, 35, -14, 30, -38, 31, 23, 3, -22, 33, 32, 9, 4, -52, 46, -41, 2, 15, -28, 52, 13, 5, 30, 22, -35, 26, 8, -21, -42, 47, 9, 32, 5, 54, -40, -19, -44, 25, -52, 20, -31, 17, 24, -24, 58, -23, -10, 13, -45, -15, -34, -2, 35, -47, 14, -23, -21, 44, -27, -19, -18, 7, -3, -27, 30, 58, 9, 40, 5, 15, -59, 21, 34, 35, -21, 49, 25, 9, 33, -14, 18, 13, 24, -16, -14, -10, 25, -53, 33, 14, -18, -8, 0, 36, 7, -31, 40, -5, 21, 6, 22, -48, 39, -17, -25, -17, -40, -5, -2, -31, -19, -42, -19, 5, -7, 17, -22, -63, 19, -33, 21, -16, 5, 31, -25, 8, 7, 10, -8, -8, -20, 14, -22, -35, 27, 33, 22, 20, 16, 21, 46, -17, -8, 16, -42, -36, 11, 22, -18, -7, 17, 23, -12, -21, -44, 9, -58, 29, -45, -1, 3, -39, -10, -2, -26, 15, -38, -9, -36, -29, 44, 17, -20, 4, -25, 11, -42, -4, -22, 22, -10, 8, -1, -56, 30, -52, 21, -46, -48, 24, -37, -56, -23, 44, -61, 36, -14, -13, 6, -35, -23, 38, 13, 3, -26, 9, 38, 9, -16, -29, 3, 22, -1, 33, -23, -27, 8, 23, 8, 11, -38, 11, 5, -26, 42, 28, -56, -16, 25, -18, -12, 15, -4, 30, -30, -64, 19, -55, 7, -46, -38, 14, 37, 6, 
  7, 6, 44, 30, -12, -32, -22, 4, 30, 22, -6, -12, -36, -44, -18, 6, 7, 39, -10, 10, -5, 64, -22, -11, 13, 9, -25, 71, 4, 5, -15, -15, -29, -43, -27, 0, -25, -22, -2, -31, -2, -60, -32, 27, -22, -9, -35, -9, 1, 35, 19, 26, -2, 26, -37, -25, 12, 13, 20, 17, -30, -18, -19, -41, -21, -19, -37, 8, 27, -53, 4, 10, -29, 22, -26, -20, 53, 30, 34, -25, -11, 22, -36, 30, 44, 31, 4, 32, 24, 39, -49, 54, 11, -37, 9, 38, 42, -23, 41, -43, 43, 2, -18, 28, 15, -41, -5, 20, -15, -16, 35, 2, -41, -33, -18, 20, 22, -44, 2, -13, 12, 21, -45, 19, -16, -15, -10, -6, -10, 40, -24, 37, 14, 32, -15, 64, 28, -39, 42, 27, -29, 32, -3, -2, -32, 50, 29, 7, 6, 13, -20, 7, -40, 34, -37, 24, -23, 52, -14, 5, 15, 23, 7, 18, 18, -44, 12, -8, 63, 25, -19, 53, -26, -15, -15, -10, 31, 40, 47, 25, 74, 47, 34, 29, 25, -18, -19, 4, 25, -27, 1, -5, -22, 9, -9, -29, 84, -29, 61, 20, 3, -34, -17, 40, -13, -43, 30, -16, -22, 43, 14, -28, 43, 52, 21, 26, -47, 1, 8, 24, -16, -27, 4, 23, 43, 17, -14, 51, 88, 1, 44, -7, 46, 36, -2, -26, 5, -9, -6, 19, 53, 44, 39, 8, 57, 13, -39, 38, -16, -17, -18, 64, 53, -24, 9, -12, 26, -6, -49, -23, 12, 6, -22, 80, 8, -37, -25, 60, 18, 43, 65, -30, -3, 51, -25, 2, -8, 49, 8, -39, -8, -17, -5, 60, 58, 16, 18, -8, 5, 14, 9, -27, 37, -13, 0, 5, 66, 3, -1, 14, 8, -1, 29, -13, 35, 36, 43, -44, 59, -16, 1, 4, -48, 33, 10, 71, 5, 22, 25, 23, -13, 26, 1, -17, 52, 2, 14, 46, 36, -4, 48, 3, 0, -26, 47, 18, -22, 30, 59, -7, 13, -27, -35, 23, -45, 40, 24, 24, 42, 31, -23, -21, 1, 42, -22, 7, 48, 0, 59, 17, 80, -5, 69, -4, -13, 32, -5, -27, -19, 2, 35, 47, 6, -24, 9, -5, -30, 64, -17, 50, 43, -18, -37, 14, -22, 26, -37, 40, -19, -37, 31, 3, 64, -27, 27, 31, -26, -32, -1, 12, 39, -20, -14, -35, -41, 16, 24, -44, -38, 67, -19, -7, 36, 63, 17, 16, -2, -9, -43, -22, 11, -37, 40, 22, 38, 45, 21, 33, 22, -21, 61, 49, 26, 61, -20, -39, 14, -28, -4, -47, 24, 48, 8, 55, 32, -30, 42, -20, -1, 1, 26, 38, 22, -7, 2, -18, 50, 53, 38, -9, 4, -3, 26, -6, -26, 20, 35, -27, 26, -10, 44, -16, -8, 12, -31, 38, -1, -22, -38, 10, 18, 41, -30, -21, 3, 26, -6, 37, 52, -18, 26, 51, -17, 1, 43, -16, -18, 40, 24, 0, 19, 22, -23, 20, 9, 32, 11, 79, 59, -25, -24, -9, 
  22, 7, -15, 43, 18, -20, 12, 25, 19, 28, 45, 22, 27, 47, 14, 6, 16, -27, 61, 44, -8, -14, 51, -14, 41, 41, 32, -39, 20, 39, 5, -9, -20, 44, 40, 56, 38, 32, 1, 46, -31, -7, 26, -18, 1, -13, -19, -27, 41, -10, -6, 23, 20, -25, 33, -18, -13, 26, -5, -74, -5, -5, 49, 8, 47, 31, 23, -17, -30, 65, -22, -19, -16, 27, -3, -30, -33, 37, -11, -8, 59, -1, -21, -19, 2, -7, 44, -29, -11, 54, 0, -59, -4, 31, 41, 5, 46, 27, 45, -22, -50, -14, -14, 24, 2, 57, -5, 9, -19, 56, 6, -6, 29, 50, -25, -10, 11, 10, -7, -23, -10, 31, 57, -3, -35, 19, -17, 34, -26, -15, 0, 55, 51, -6, 16, -24, -71, 20, -9, 7, 7, -21, -1, 19, -1, -20, -60, 8, 12, 28, -17, 17, 16, -22, -6, 4, -8, 40, 29, 53, 44, 39, 55, -1, 12, -18, 6, 3, -51, 38, -1, -26, 9, -20, -29, 54, -52, -14, -37, 0, -51, -6, -16, 29, 30, 23, 47, -15, -64, -2, 41, 21, 35, 26, 15, 20, 17, 11, 3, 9, -34, 53, 21, 7, 65, 20, 11, -10, -29, 6, 8, 56, -51, 3, 2, -17, -12, -42, 19, -22, -57, 45, -17, -5, -11, 22, 35, -14, 20, -22, -59, -25, -43, 48, 39, 9, -23, -22, 39, -42, 23, -22, 41, 12, -24, 5, -2, -23, -4, -11, 12, -45, -26, 33, 54, 10, 33, -9, 14, 5, -5, -41, 10, -58, -5, 4, 20, -32, 18, -34, 3, -33, -4, -28, 10, 10, -27, 35, 34, 32, 9, -1, -22, -56, -22, 13, 10, 15, 14, 40, -16, -13, -47, 43, 26, -23, -35, -18, -49, -8, 40, 27, -1, 0, 9, -39, -29, -7, 0, 49, -17, 9, 47, -18, 13, -27, -57, -20, 32, 45, 31, 22, 49, -46, -22, -9, -13, -24, -1, -23, -56, 3, -22, -5, 24, 33, -6, -46, -64, 55, -58, -7, 23, 36, 41, -5, 4, -36, -18, -34, 37, 19, -11, 33, 16, -1, -15, -27, -78, -34, -65, 21, -37, 21, 52, 24, -49, 19, 0, -36, 17, 11, -27, -14, 0, 3, 14, -48, 50, 5, -10, -30, 6, 35, -39, -22, 42, -3, -21, -18, -19, -44, -87, 9, 20, -41, 48, 45, 7, -23, -13, -40, -19, 22, -31, -4, 30, 36, 1, -1, -21, -12, -1, 35, -14, 19, 27, -2, -9, -38, 1, 1, -50, -37, -43, -27, -41, -19, 33, -38, -13, -36, 27, 29, 29, 7, 12, -15, -8, 11, -21, -4, 36, 12, -30, -9, -33, 49, -15, 15, -24, -5, 21, 16, -7, -14, 2, 8, -33, 1, 57, 27, 0, 27, 9, -12, 0, 44, -22, 21, 8, -17, 56, -14, -1, -38, -25, 3, -41, -36, 33, -49, 46, -24, 21, -26, -36, 31, -1, -24, 33, 23, -24, -38, -4, -39, -26, -11, -60, -31, 27, -10, -39, -25, 12, -55, -24, -56, 2, 24, 43, 15, 
  -27, -15, -37, -37, 2, -18, -43, 38, 37, 16, 6, -7, -4, 29, 17, 0, -12, -32, -41, -23, -20, 61, -1, 44, -4, 0, -20, -2, 28, 27, 4, -26, 41, 19, 27, -42, -13, 14, 18, -37, -29, 26, 14, -6, -46, -28, 25, -31, 9, -38, 15, -15, 5, 21, -7, 4, -40, 44, -36, 18, -18, -15, 8, -42, 1, -35, -9, -52, 18, -14, -15, 1, -29, -17, -38, 37, -1, 0, -52, -12, 3, 30, -37, -27, 22, -17, 33, 61, 5, -6, 7, 54, 12, -4, -34, -40, -13, -18, -1, 22, 33, -40, 24, -16, 31, -38, -42, -24, -14, -3, -40, 33, 17, -38, 32, 29, 10, -34, -48, 50, 53, -20, 29, 7, -38, -9, 24, -39, -40, -12, 30, -10, -38, -48, -8, 24, 61, -30, 28, 10, -48, -38, 43, -11, 25, 41, 38, -33, 19, -34, 4, 42, -11, 54, -26, 26, 31, 12, -2, -3, -34, 2, 13, -12, 10, -23, 49, 18, -15, 9, -1, 0, 3, 23, 48, -26, -4, 24, 39, -22, 0, -6, -12, -25, -28, -5, 19, 11, -2, -26, 6, 24, 32, -10, -8, 47, 46, -16, 2, -22, 20, -47, -13, 49, 0, 14, -19, -17, -8, 31, -11, -19, 79, 22, 12, 30, -40, -35, 4, 60, -8, -41, 7, -1, 44, 15, -41, -26, 35, 17, 4, 44, 46, -21, 45, 30, -2, -36, -31, -24, -21, 8, 34, -36, 72, 38, -14, 20, 23, 15, 16, 19, 47, 0, -8, 28, -1, 16, -20, 44, -14, -28, 12, 35, 48, 6, 20, 46, 6, 19, 39, 48, 43, 40, 32, -17, 47, 16, 45, -3, -37, 57, -25, 39, 30, 46, 17, -57, -37, 8, -7, -19, 24, 37, -18, 25, 41, -29, 4, -8, -2, 24, 3, -6, -23, 29, 66, 19, 25, 27, -28, -19, -1, 25, -16, 11, 16, -22, -12, -10, 1, -16, -47, 2, 23, -26, 69, 2, 73, -36, 18, 17, -34, -53, -26, -3, 51, -3, 16, 0, 20, -27, 57, -48, -49, 15, -12, 53, 14, 46, -38, -6, -16, 15, -44, 11, 29, 42, -4, 49, 61, 13, -10, -9, 22, 30, 17, -1, -7, 15, 44, 45, 67, -30, -15, 8, 27, 40, 8, 48, 38, -10, 32, 2, -11, 43, 15, -19, 14, 4, -1, 22, 74, 27, 59, 53, -11, -15, 42, 16, -3, 63, 28, 34, 28, -8, -16, -38, 12, 70, 28, 26, -22, 55, 54, -20, -44, 12, 17, 32, 44, -1, 49, 43, 48, -3, 51, 5, -31, 45, 46, -17, -9, -10, -23, -16, 43, 0, -42, 2, 21, 26, -28, 29, -22, 54, -6, -21, 17, 60, -35, 26, -28, 52, 22, 37, 62, 28, 35, 34, 7, 4, 57, 32, -16, 71, 49, 40, 4, 33, 14, 26, -13, 64, 35, 75, 39, 34, 27, -4, 2, 8, -13, 59, 13, -30, 38, 6, 59, -26, -13, -9, 22, 36, 43, -28, 15, 17, 66, 23, 6, 32, -32, 14, 31, 10, 37, 50, 2, -29, 40, 4, 
  16, -36, -47, 18, 70, -47, 11, -43, -17, -15, 12, -25, -18, -38, 2, -52, -16, 7, -53, -28, 35, 51, -38, -31, 23, 41, -32, 26, 7, -19, -13, 14, -18, -43, 12, 37, 13, -19, -40, -36, -24, 1, -42, 42, -20, 35, 23, 14, -51, -29, 9, -23, -4, 45, -32, -18, 13, 44, -48, 17, -36, -57, -4, 29, 10, 30, -50, 13, 26, -22, -23, -20, 7, -54, -5, 10, -21, 9, 4, 16, -43, 26, -15, 40, 42, 58, 11, 0, 18, -17, -10, 20, -38, -48, 30, -47, 34, 5, -33, -31, 0, -52, 39, 26, 23, 20, -31, 7, -11, 8, -14, -31, -2, 9, -2, -34, 33, 42, -48, 26, -3, 13, -31, 39, -8, 2, 27, -43, -4, -23, -38, 1, -14, 28, 14, 65, 56, 1, 3, 6, 19, -35, 5, -26, -23, -8, -21, -31, -16, 10, 35, 29, 29, 17, 26, 24, 20, 12, 6, 4, 20, -5, 18, -2, 85, 9, 35, 18, 53, -5, -37, 41, -23, 8, 2, -50, -35, 42, 12, -24, -8, -2, 17, -11, 6, -21, 18, 56, 34, 8, -5, -55, -14, 3, 26, 53, 93, 22, 58, -3, 28, 7, 8, 43, -62, -27, -19, -16, -12, 2, 23, -9, 36, 8, -9, 38, -22, -4, 18, 35, 40, -9, -22, -37, -26, 39, -30, 36, 3, 2, 47, -2, 62, -26, 51, 32, -6, -19, -16, 36, 18, -19, 47, -25, 73, 12, 2, -31, -48, 26, 6, 20, 52, -13, 29, -13, -16, 15, -59, -27, 35, -5, -3, -1, 62, -19, 52, 38, 0, -15, 45, 12, -39, 45, 34, -33, 7, 46, -36, -1, 17, 6, 21, -7, 26, 22, -35, 28, -14, 28, -56, -38, 33, 9, 2, 11, 60, 26, -7, -8, -47, 14, 36, -31, -33, 62, 34, -1, 48, -1, 13, -13, -45, -27, 15, 79, 33, 41, 6, -7, -12, 7, 21, -29, 31, 25, 79, 59, 22, -13, 9, 7, -59, -32, 8, -40, 35, -19, -24, 10, 55, 20, 34, 20, -37, 1, -18, 50, -29, 21, 7, -29, -51, 6, 11, -7, 30, -19, 4, -32, 59, 27, 23, 55, 21, -53, 6, 24, 9, -1, 8, -8, -25, -15, 28, 1, -5, 44, -14, 80, -5, 25, 20, -12, 38, 45, 18, 1, 47, 51, 5, -18, 68, 17, 13, -5, 19, 34, 20, 39, 10, 24, 55, 25, -12, -44, 29, -49, 25, -14, -17, 16, 42, 56, -25, 8, -18, 9, 7, 3, 27, 26, 22, 32, 44, 30, 56, -21, 14, -29, 52, -20, -30, 67, 15, -50, -21, -2, 12, -18, 3, 55, -39, 52, 24, 50, -20, 4, -48, 10, -52, 56, -4, -1, 16, 14, 50, 2, 26, 42, -47, -18, -7, 3, -7, -1, -1, 6, 34, -48, 39, 20, 29, -15, 37, 40, -24, 35, -39, 42, -7, 24, 32, 56, -14, 9, 44, 52, 73, 22, 21, 55, -2, 35, 18, -11, 21, 59, 22, -4, -9, 28, 49, -7, 40, -3, 51, 72, 12, 9, 17, -11, 
  -49, 5, -27, 2, -63, 27, 9, -10, 17, 55, -8, -6, -9, 8, 28, 66, -9, 48, -34, -17, 39, -48, 22, 44, -33, 45, -10, -10, 64, -10, -3, 40, -45, 14, -20, 3, -21, 61, -4, 56, -32, 10, 41, -8, 37, 51, 30, 43, -16, 31, 6, 67, -23, -56, 42, -21, 8, 1, -7, -37, -4, 26, 47, 2, 12, 17, 25, 31, -19, 16, 35, -16, 2, 42, 45, 23, 23, 74, 35, 21, -21, 1, 10, -7, -43, -51, -1, -23, 35, 20, -3, -80, -17, 57, 33, 41, 19, -11, 34, 35, -40, 8, 8, 53, 13, 55, 34, 21, 33, -23, -4, -23, 3, 41, -12, 55, 6, 24, 16, 2, -21, 21, 68, -1, -10, 2, 1, 58, -11, 22, 5, 24, -3, 11, -8, 22, -27, -9, 44, -55, 58, 6, -39, 55, 37, 6, -23, 1, 48, 12, -3, 19, 22, -1, 1, -63, -46, -32, 44, 70, -19, -17, -1, -45, 11, 11, 11, 18, -17, 52, 28, -45, 27, 19, -27, -22, -15, -52, 23, 36, 6, -25, 23, -2, -9, -14, 18, -51, -58, 40, 22, 64, 40, 29, -9, 44, -8, 61, -1, -29, -27, 17, 15, -31, 79, 54, 19, -2, 16, 13, -27, 16, -9, -43, 2, -19, 40, 28, 45, -74, -15, -19, 36, 36, 4, -9, 59, 37, 11, -20, -23, -6, -3, 30, 40, -8, 11, 51, 8, 4, 12, -29, 13, 27, -78, -5, 28, 24, 47, 0, 30, 20, -34, 14, 53, 10, -4, -48, -19, 47, 45, -32, -11, -9, -78, -19, -43, -18, 69, 30, 1, -36, 6, -41, -30, -11, -13, 27, -5, 76, 21, -14, 12, 14, 5, -32, 7, 55, 51, -17, 24, 14, -37, 17, -31, 6, -18, 7, -7, -17, 65, 5, -62, 17, 19, -8, -54, 19, -50, -9, -32, 6, 40, -46, 21, -76, -39, 5, 15, 7, 28, 9, 30, -40, 1, -30, -31, 14, -49, 53, -30, -4, -2, 51, -6, 35, 22, 28, -26, 20, -31, 43, -33, 39, 54, -3, 29, -30, -26, 10, 37, 58, 28, 22, -8, -36, 13, 46, -12, -8, 1, -19, -55, -22, 64, 5, 17, 12, 14, -56, -67, -15, 30, 34, -51, -1, -9, -7, -2, -36, -21, 31, 34, 9, 27, -44, 49, -13, 27, 29, 40, -18, -45, -9, -25, -20, -22, 41, -56, 39, -11, -23, -47, 48, 48, 38, 18, -7, -9, 18, 17, 13, -3, 10, -35, 0, 23, -31, 5, 40, -10, -43, -27, -43, -26, -4, -26, -26, 14, 39, -23, -26, 12, 26, 36, 40, -10, 38, 45, 25, 40, -2, -7, 3, -16, -56, -25, -18, 54, -12, 42, 10, -4, -1, -34, -8, -56, 6, -17, 22, -5, -21, -62, 25, -21, -7, 19, -17, 40, -8, -22, 60, -5, -55, 33, -75, 26, -53, 42, -3, -5, -30, 26, -39, 58, -9, -10, -20, -67, -47, -6, -19, 45, 37, -3, 5, -39, -19, -22, -54, 1, -21, 17, -12, -15, -4, -19, -12, -24, -28, 11, 32, 
  31, 29, -9, -31, 29, -10, -8, 15, -16, -3, 40, 9, -25, -26, 20, -46, 16, -38, 10, 31, 13, -14, -62, 1, -1, 39, 34, 88, -50, -11, -33, -41, 9, 10, -6, -37, 24, -24, 34, 9, -9, -21, 4, -8, -22, -23, -21, -15, -42, 23, -15, -44, 12, 13, -17, -32, -24, -16, 12, 59, 9, 27, -17, -18, -25, -12, 19, -36, 86, -42, 18, -7, -41, 4, 39, -25, -22, 7, -22, 2, 8, 36, 23, -39, 1, -1, -33, 48, -27, 28, 12, 15, -43, -44, -12, -12, 6, -14, 34, 31, 89, -4, -26, -31, -28, 19, -13, 18, 16, 5, 29, -40, -45, 12, 11, 32, 63, 42, -49, 30, -1, 31, 29, 37, -1, -42, -44, -44, -25, -4, -11, 0, 67, -24, 48, 21, 5, -12, -7, -27, 2, -8, 30, -18, 19, -1, -23, -24, -18, 37, -34, 40, 34, 6, -39, 40, 7, 16, -13, -25, -3, -24, -10, 36, 84, 37, -2, 15, 55, -21, -1, -8, -10, 31, -3, -7, -33, 0, -5, -44, 50, 6, 13, 52, 16, -18, -52, 34, 17, 39, -14, -16, -26, 7, -14, 13, 37, -47, 44, 8, -15, -7, 43, 34, 14, -33, 24, -22, -7, -15, 51, -4, 57, 23, 44, 16, -18, -10, -25, 38, 5, 39, -16, -27, -20, -6, -39, 42, 43, -27, 0, 35, 12, 4, 21, 14, 8, 16, 8, 38, 55, 20, -46, 34, 67, 9, -5, 26, -50, 21, 32, 66, 23, 21, 31, -10, 20, -4, -37, 10, -10, -6, 20, 72, 17, 20, -4, 38, 6, 31, 39, 30, 20, 54, 26, -37, 1, 25, -24, -54, -22, -4, 0, 62, 52, 3, -1, -4, -3, -6, -28, -14, 36, -6, 16, 12, 36, -9, -3, -26, -49, -29, 18, -37, -9, 27, 12, -5, 55, 35, 42, -42, -53, 20, -49, 24, 42, -20, -46, -42, -34, -22, -39, -22, 70, 20, 24, 13, 29, 25, 23, 19, -33, 33, 55, -22, 5, 41, 51, -5, 62, -5, 43, 10, -38, 46, 13, 71, 40, -35, -43, -33, -4, 53, -49, 21, 66, -10, 41, -30, 43, -8, 51, 41, -18, 36, 8, 13, 14, 28, 17, 10, 16, 31, -24, -16, -28, 43, 26, 12, -10, -7, -33, -13, 0, -21, -44, -19, -22, 5, 11, -14, 50, -28, 12, 0, 20, -29, 26, -14, -3, 32, -29, -4, 1, 12, 3, -8, -2, 30, -20, 66, -17, 8, -28, -8, -16, 23, -28, -32, 21, -27, 11, -3, 4, -27, 13, -23, 34, 11, 14, 42, -27, 27, 39, -38, 22, -33, 42, -39, 24, 9, -10, 22, -2, 51, -30, 9, -12, 25, 34, 2, -1, 40, 16, -30, 7, 20, 48, 58, -11, 21, 11, 24, 15, -23, 37, 14, 17, -25, -3, -6, -17, -33, 42, 34, 2, 41, 25, 3, -44, 32, 21, 48, -41, 24, 74, 48, 23, 5, 41, -20, -24, -15, 42, -13, 44, 11, -7, 4, -3, 28, 18, 71, 37, 7, -38, 37, 6, -30, -23, 7, 
  -1, 13, 30, 16, 28, -18, -35, 8, -23, -37, -19, 15, -37, 3, -25, -45, -37, -16, 30, 27, 30, 12, 13, 39, 27, 56, 4, 81, 18, 5, -31, 6, 58, -16, -13, -36, 19, 6, -37, -23, -26, -20, -1, 44, -23, -43, -31, 5, -46, 13, -46, 28, 31, 37, -12, -7, 44, 35, 9, 76, -8, 19, -23, 12, -38, 29, 35, 17, 59, 21, 43, 40, -5, -21, -31, -1, 12, -11, 36, 19, -12, -6, -55, -35, 50, -21, 1, 57, 0, -5, -10, 75, 2, 26, -34, 2, 52, 38, -8, -5, 65, -49, -5, 9, 6, 6, -7, -28, -41, 14, -41, -46, -43, -41, 34, 32, 62, -24, 28, 12, -33, 13, -15, 38, 24, 18, -41, -38, 0, 18, -21, 2, -13, -37, -7, 39, 5, 26, 52, 34, 18, -12, 7, -36, -38, 7, 58, 34, -41, 25, 9, 39, 31, 45, 21, 13, 33, 6, -8, 16, 21, -22, -8, 11, 49, 33, -2, -10, 5, -22, -9, -15, -52, 32, 43, -9, 37, 75, 63, 5, 69, 45, 33, -35, -23, 35, -29, 2, 53, 31, 32, -26, -6, -20, -34, -26, 46, -40, 3, 0, 33, -34, -12, -10, -11, -6, 10, 0, -40, 9, 20, -43, 41, 13, -40, 11, 22, 12, -2, 65, 11, -4, -44, -28, -23, -14, 26, 17, 79, 11, 33, 48, 8, 3, -24, -5, 34, -10, 30, -11, -3, 3, -24, -48, 82, -4, 36, 25, -19, -20, 16, 84, 25, 36, 10, -31, -51, -14, 30, -19, 18, 34, 22, 77, 25, 14, 13, 59, -42, 6, -2, 27, 19, 20, -8, -44, 24, 37, 25, 8, -36, 46, 14, 28, -26, -16, 24, 24, -22, -22, -24, 27, 86, 18, 2, -14, -4, -3, 1, 50, -42, -54, 30, 0, 24, -12, 11, -39, 40, 21, 16, -1, -31, 27, 14, 50, 57, 4, -30, -37, -52, 1, 20, 34, 8, 40, 9, -5, 53, -12, 42, 24, 15, 15, -23, 8, -34, 27, 26, 25, 62, -7, 6, 2, -52, -4, -50, 55, -14, 19, -8, 11, -43, 47, -15, 13, 27, -37, 18, 9, 20, -2, -2, -22, -26, -40, -25, 2, 58, 10, 57, 25, 12, -22, -31, 5, -26, 5, -51, 49, 14, -23, -44, -42, -12, 66, 32, 33, -13, 32, 21, 9, 47, 22, -2, 21, 1, -41, 38, -35, 46, -23, 43, 4, -10, 46, 47, -25, -35, -10, -14, 36, -31, 51, -31, 45, -47, 10, -41, 13, 27, -13, -15, 46, 17, 1, 32, 48, -4, 34, 16, -4, -8, 23, 35, 1, 26, -9, 41, 48, 34, -18, -39, 6, 53, -17, 45, 7, -55, 27, -13, 41, -45, -25, 23, 61, 67, 2, 33, -9, -8, -11, 15, 0, -13, 62, 34, 3, -12, 20, 13, -20, 3, 33, -11, 36, -8, 54, -5, -38, 10, -27, -30, -11, -33, 19, 11, 77, 20, -12, 54, 43, -29, -1, 44, 41, 26, 38, -10, 15, -13, -34, 10, 43, 56, 15, -4, 10, 64, 24, -25, 37, 
  -44, 16, -29, 46, -30, -23, 14, 28, 37, 33, -4, -8, 41, 0, -15, 32, 51, 13, 24, 24, -20, -33, 51, -17, 26, -33, 8, -17, -12, -9, -14, 17, -40, 23, 10, 2, -5, -25, 42, 26, 31, 7, -34, -36, -26, 1, -20, -24, 34, 9, 59, -5, 33, 19, 54, -30, -42, 35, -16, -69, -5, -18, 16, 25, 18, 51, 40, 55, -52, 46, -27, 53, 29, -27, 40, 5, 4, 24, 32, 30, 21, -4, 43, -6, 23, -17, 35, -38, 23, 4, 36, -24, -26, 21, -6, 24, -19, -26, 40, 42, 16, -2, -3, 40, 29, 56, -33, -8, -22, -15, -20, 40, 6, -24, -19, 2, -48, -33, 62, 10, 13, 4, 29, 26, 12, 50, 21, -32, 12, 21, -20, -28, 35, -23, -21, 20, -11, 20, 35, 5, 41, 22, -41, -5, 33, -20, 23, -1, 36, -22, 49, -1, -14, 32, 6, -47, -41, 34, 42, 0, -45, 25, -18, -38, -26, 9, -8, -42, -55, 15, -36, -33, -30, 45, -54, 33, -22, -34, -31, 43, 13, 5, -24, -37, -4, 21, -5, -18, -26, 40, 31, 39, -6, 45, 5, 10, -51, -20, -50, 5, -48, -6, 16, -17, 22, 3, -39, 6, -26, -10, 0, 9, 10, 17, -37, -31, 23, -43, 33, 13, 13, 34, 23, 41, 46, 6, 19, -33, -15, -28, 0, -11, -26, 3, -13, 23, 38, 34, 17, 23, 19, 15, -6, -14, -52, -17, 37, -39, -7, -27, 50, 2, -47, 33, 16, -11, 4, -8, -8, -17, -16, -13, -48, 3, -70, 11, -31, -59, 11, 45, 17, -37, -8, 14, 2, -21, 4, -44, -32, 6, -19, 3, -30, -32, 36, -44, -34, 30, 1, 0, 10, -56, -37, 28, -45, -18, -20, -12, 22, -38, 51, 41, -49, 54, -13, -15, -26, -12, 10, 13, 4, -3, 12, -10, -5, -29, 4, -11, 39, -20, 52, -17, 33, -27, 18, 41, 3, -12, -71, 5, -13, 1, 36, 24, 16, -5, -20, -44, -9, -10, 19, -34, 9, -8, -5, 17, 8, -3, -2, 5, 21, 36, 35, -21, 48, 29, -52, 35, -21, -32, -44, -24, -52, -48, -15, 33, -45, 7, -6, 19, 2, 27, 22, 12, -27, 10, -23, -49, 53, -41, 5, -44, -14, -1, 10, -15, 48, -32, 6, 38, 39, -59, -23, -12, 22, 33, 22, -28, -60, 31, -2, 28, -2, 34, -22, 25, -14, -34, -9, 16, -22, -44, -31, -5, 34, -5, -23, -21, -30, -51, 40, -44, 2, 26, -41, -17, -49, -4, 1, 34, -63, -20, -19, 19, -44, 16, -33, 6, 4, 46, 9, -64, 6, 6, 27, 32, 15, 45, -26, 22, 49, -18, 62, -26, -39, 19, -20, 19, 4, -1, 44, 35, -47, -23, 40, -12, 17, 35, -11, 28, 6, -26, 38, -6, 19, -4, -21, -6, -37, 31, 47, -49, 37, -41, -20, -28, -36, -35, -25, -15, -58, 24, 10, -12, -52, -18, 19, -35, 3, 27, -6, -28, 15, 12, 6, 9, 36, -59, -30, -45, 5, 26, 
  -34, -10, -3, -2, 63, -22, -29, -37, -13, -8, -15, -5, -14, 0, -29, 19, 7, 17, -43, 2, 23, 52, 1, 2, 45, 24, 33, 51, -24, 27, 13, 34, 45, -32, -19, -9, 65, -30, -1, 17, -15, -45, -19, 29, 35, 10, 8, -28, 26, -7, 17, -33, 0, 56, -41, 18, 22, -43, 9, 58, -40, -55, -45, -33, 45, -36, 1, -18, 60, -32, -29, 13, -7, -51, -12, 14, -26, -25, -54, -2, 11, 2, -50, 37, 20, 37, -56, 50, 11, 15, -22, 67, -34, 14, 16, -22, 16, -31, -31, -31, -7, -46, 38, -31, 17, 4, 8, 29, 15, 7, -50, -24, -15, 34, -29, -30, 72, 1, -33, 53, 56, -46, 6, 39, 43, -25, 35, -48, -25, 7, -56, 1, 26, -48, 43, 36, 25, -8, 45, -2, 12, -40, 39, 19, -29, 53, -12, -13, 38, 15, 36, 5, 2, 48, -30, 35, 7, -28, -14, 32, 48, 24, 21, 37, 24, -5, 16, 24, 55, 4, 25, 61, -37, 15, 20, -26, -2, -7, -3, -18, 50, 42, 1, -31, 22, 46, 31, 9, -25, 28, -4, 3, 35, -4, -17, 1, 6, 14, -15, -29, 9, -2, -26, -10, -49, -24, 30, -2, 20, 23, 22, -7, 36, 11, -26, 15, 35, -12, -22, 52, -5, -27, -32, -11, -29, -14, -15, 45, 58, 2, -1, -14, 62, -11, -35, -34, -17, -36, 46, -35, -24, 30, -31, -20, 31, 21, 15, -14, 35, -10, 24, 15, -25, -6, -42, -37, -24, -16, 14, -34, -15, -22, 54, 75, 22, -6, 16, 62, 0, 14, 7, 12, 32, 36, -7, 13, 21, -17, -38, -23, -36, -13, -21, 58, 10, 49, 12, -22, 27, 31, -1, -20, 46, 16, 47, 8, 9, 3, 55, 29, -30, -13, 15, 37, -9, 45, 5, -9, 36, 21, -30, 33, 13, -26, -30, 45, 45, 1, -38, -24, -25, 38, 3, -4, 71, -16, -15, 44, 14, -40, 37, 31, -14, 23, 52, 3, 42, 36, 15, -34, 19, -3, -14, 32, 17, 4, -44, 53, 41, 22, 8, -3, -57, 7, 12, 20, 34, 27, -11, -17, 41, -16, 37, 29, 24, -18, 38, 8, 42, 18, 0, -35, 62, 4, 21, -35, -7, 1, 9, 74, 14, -33, -35, -7, -2, 51, -42, -26, -17, 45, -20, 0, 92, 6, 57, 36, 35, 4, -11, -18, 33, 56, 36, 35, 1, 56, 16, 28, 6, 7, 38, -9, -7, 26, -37, 38, 19, 17, 14, 0, -39, 14, 10, 73, 47, -1, 76, 34, 6, -22, -2, -20, -33, -20, 28, -17, 21, -24, 42, -4, -28, 62, -5, 26, 42, 28, -12, 34, 5, 26, -23, 58, -12, -29, 66, 43, 67, -16, 52, -20, 30, -38, 59, 39, 38, 6, 20, 31, -13, -11, -27, -31, 31, 24, 21, 89, 23, -27, 40, 12, -36, 47, -35, 0, 30, 43, 14, 53, 36, 39, 2, 50, -23, -10, 36, 0, 26, -12, 0, 37, -35, 30, 46, 78, -28, 14, -34, 12, 37, 45, 29, 16, 
  -51, 18, 36, -12, -32, 41, 42, 24, 40, 64, -7, -32, -33, 33, -26, 61, 40, -9, 43, -10, 41, -21, 17, -43, -12, 7, 12, -64, 24, 10, 39, 39, 41, 22, -5, 20, 0, 39, 3, 63, -23, 23, 19, -49, 44, 34, -27, -27, 71, 2, 45, 27, -55, -8, -3, -13, -18, -50, -1, -54, 39, 3, 35, 75, 55, 48, 18, 23, -30, 63, -17, -11, -42, 36, 32, -23, -18, -16, 26, 14, -5, 42, -3, -10, 1, -50, 34, -48, 14, -5, 83, -65, -21, 17, 6, 59, 18, -4, -24, 24, -38, 59, 34, 23, -20, 36, 34, 12, 19, -1, 50, -6, 53, 52, 54, 50, -23, 19, 1, -2, -26, 65, 26, 16, -34, 31, 46, -19, 14, 31, 45, 32, 2, 38, 33, -56, -76, 29, 29, -25, -19, -8, 15, 2, -20, 4, -58, 53, 6, -15, -19, 6, 31, -51, 59, -55, -54, -3, 35, 45, 14, -26, 34, -6, -8, -1, 17, -13, -37, -8, 23, -3, 54, 70, -30, -32, -31, -17, -61, 60, -32, -35, -29, 49, 53, -28, 46, -22, -8, 15, 40, 41, 41, -23, 43, 29, -16, -24, -21, 34, -74, 59, 37, 5, 15, 41, -23, 20, -17, 12, -83, 31, -38, 9, 15, 5, 33, 44, 28, -36, -47, -8, -10, 12, 28, 36, 41, 6, 1, 13, -62, 43, -50, -9, -11, -54, 47, 0, -29, 24, 23, -13, -16, 0, -29, 11, -12, -38, 39, 35, 35, -47, -21, 40, 39, 2, 27, -52, 71, -14, -15, -33, -25, -40, -51, -14, -41, -2, 15, 3, -56, -32, -25, 20, 9, 38, -12, -6, -2, -1, 59, 5, -4, 7, 28, 1, 9, -11, 14, -57, 7, 29, -9, -25, -34, 16, 12, 14, -56, 1, 34, 17, -20, 10, -16, -59, -3, -2, 7, 41, 14, 13, 85, 5, 67, -46, -63, 31, 42, 17, 24, 14, 40, -19, -13, 47, -62, 2, -42, -7, 31, 7, 47, -9, -59, 15, 23, -55, 3, 41, -15, 55, -62, 32, 8, 22, 14, -27, -50, 33, 3, 21, 37, -29, -7, -37, 15, 6, -82, -11, -68, -7, 10, -15, 5, 54, 26, -26, -42, -24, -52, -37, -53, 5, -3, 7, 55, 7, 29, -15, -10, 42, 51, 4, 18, 6, 33, -13, 35, -29, -31, 17, -24, 28, -9, -13, 11, -30, -46, -42, -22, 8, -18, 23, 1, -8, 39, -10, 60, -32, -21, -55, 19, -48, -13, -13, 65, 2, 4, -46, 17, -23, 5, 18, -55, -21, -57, -37, 64, -14, -53, 37, -7, 41, 19, 39, 36, 5, 9, -34, -7, -31, -32, 10, -39, -33, -14, -14, 44, -69, -2, -48, 40, 11, -21, -16, -24, 14, 0, -36, 13, -15, -51, 10, -29, -24, 9, -27, 36, -19, -40, 0, 7, 17, 27, -64, 28, 23, 30, 12, 63, 21, 53, -37, 33, 8, -52, 2, -13, 23, -41, -54, -38, -10, -50, 17, 20, -21, 11, -30, -34, 22, 38, 3, -40, 11, -33, -3, 25, 32, -5, -25, 
  -28, 57, -24, 33, 5, -1, 13, 51, -22, 19, -17, 19, -24, 14, 24, 66, 8, 25, 38, 9, -1, -58, 37, 12, -33, 18, 15, -42, -9, 47, 22, 45, 25, 40, 3, 7, -30, -4, 13, -5, 31, 79, 25, -36, 1, 45, 44, 26, 28, 21, 60, 54, -36, -53, 38, 17, -31, 22, 32, -85, -29, 32, 36, 41, -31, -23, 21, 63, 8, -4, 3, -7, 26, 10, 31, 5, 14, -6, 25, 26, 63, -24, 25, 35, -7, -24, 8, -37, 37, 27, 77, -13, -36, 50, 52, 53, -13, 7, 31, 31, -13, 71, 7, 10, -26, 31, 11, 36, -17, -17, 53, -17, 50, -17, -24, 31, -51, 12, 66, -3, 27, 39, 12, -5, 28, 42, 44, 23, -14, -38, 43, 53, 43, -8, 49, -9, -73, -11, 1, -50, 0, 65, -4, 43, -1, -13, -1, 39, 8, -5, -35, 34, 67, 36, 43, -8, 5, -1, 54, -1, 25, 3, 66, 17, -67, 51, 23, -22, -7, 50, 7, -2, -13, 35, -42, 23, -29, -19, -47, 65, -20, -15, 26, -23, 72, 3, 51, -70, 13, -28, 23, 48, 39, 5, 3, 11, -30, 33, 23, -34, -72, 47, 1, -25, 48, 56, 13, 51, -26, -53, 21, 14, -40, 41, 15, -34, 17, 9, 23, 3, -44, 13, -16, 31, 60, 19, 41, 4, -50, 67, -75, -31, -1, 26, -24, -14, -3, 44, -39, -18, -28, 7, -27, 42, -91, -25, 17, 19, 4, 20, 12, -36, -29, 32, 13, 45, 34, 14, 16, 18, -40, 7, 20, -54, -2, 14, 1, -68, 63, -11, -18, -41, 33, -52, -40, 41, -28, 9, -11, 32, 65, -57, 58, 22, 6, 21, -32, 70, -11, 13, -4, 20, -32, -31, -42, -41, -19, 8, -35, 10, 19, 44, -76, -24, 12, -63, -31, 1, -39, 4, 52, -2, 43, -56, -18, -48, 10, -28, 29, 47, 33, -5, 22, -7, -55, 41, -31, -17, -57, -9, 17, -49, 80, 68, -14, 23, 12, 1, -4, -15, -6, -12, -36, 61, 46, 20, 68, 4, 18, -13, 17, 13, 38, -12, 46, 28, -19, -4, -59, 9, -75, -6, -19, -2, 64, 0, -7, 10, -30, -41, -2, 38, -53, 55, -28, 33, 10, 3, 26, -64, -37, 4, 55, 50, 4, -3, -11, -39, 32, -7, 4, -49, -35, 35, -65, -4, 41, -7, 5, 15, -2, -38, 7, 26, -30, -3, 26, 60, 10, -61, 41, -48, 31, 15, -2, 1, -16, -16, 24, 15, 39, 9, -28, -1, -45, -15, -33, -34, 62, 40, 19, 21, 10, 34, -40, -30, -26, 52, 30, 22, 54, -27, 52, 26, -70, -52, 30, 28, -7, -13, 53, -4, 57, -7, -45, 9, 6, 8, 9, -47, -1, 27, -54, -35, 3, -49, -20, 13, -16, 39, 34, 15, -5, -36, -27, -50, -50, -25, -23, 39, 60, 1, -37, -24, -10, -43, -60, -45, -26, -21, -56, -61, 29, -20, 9, -21, 11, -18, 6, -31, 4, 12, 20, 2, -37, -75, -10, -17, -57, -19, -5, -42, 
  -26, -38, -43, -45, 55, 19, 34, -25, -23, -48, 40, 7, 27, 31, 17, 20, -51, 33, -7, -4, -45, 61, 2, -42, 10, 4, 27, -2, 13, -48, 0, 12, 46, -29, 28, -26, -21, -9, -39, -24, 36, -31, 10, 28, -2, -45, 3, 40, -9, -28, 24, 32, 58, 10, -51, 12, 42, -21, -16, 53, -30, -13, -1, 0, -21, 3, -9, -38, 52, -9, -24, 14, 48, -3, -38, 10, 25, 1, -9, -44, -32, -13, -47, -1, 36, 39, 21, 54, 34, 23, -17, 59, 37, 23, -41, -18, -5, -23, -7, -49, 42, 10, 38, -47, 37, -10, -26, 37, 25, -27, 9, -17, 21, 7, -39, -29, 58, -3, -41, 16, 42, 27, 26, -13, 14, -27, -20, 7, 25, 21, -34, 21, 27, -27, 4, 6, 13, -19, 0, 51, -29, -38, 54, 17, -3, -16, 35, -5, 35, -21, 34, 47, -6, 7, -14, 91, -10, 32, 11, -30, 0, -25, 4, 47, 36, -60, 30, 40, 35, 25, 29, -14, -15, -28, -19, -2, 43, -19, 39, -12, 49, 27, 16, 3, -10, 34, 19, 19, 71, -43, -20, 21, -32, -8, 2, -11, 54, -4, -25, -8, 16, -50, 38, -13, -36, 7, -4, 19, 20, 7, 58, -35, 54, -15, 20, -24, -12, 27, 6, 100, 30, 25, -28, -47, -27, 21, -50, -32, 40, -46, 10, 15, 46, 4, 7, 42, -15, 22, -29, 30, -29, -28, 5, -52, 39, 36, -44, -37, -36, 4, -15, 65, -13, -48, -25, -38, -9, 51, -19, 0, 27, -5, 20, 34, 18, -21, 8, 17, 16, -9, 71, 30, -30, 59, 36, -43, 12, 10, 5, -43, -39, 21, -10, 49, 12, 13, 40, -32, -10, -20, 30, -11, 20, 23, 9, 73, 29, 24, 58, -17, -37, 26, 28, 15, 5, -10, 59, 8, -4, -6, -36, -33, 10, 12, -40, 87, 21, -11, -42, -15, -39, 18, -8, 42, 54, -28, 17, 75, 43, 21, 49, 31, -4, -45, 37, 16, -41, 30, 11, -14, 49, 2, -8, -42, 19, 55, -9, 1, -4, 17, 16, 4, -27, -34, -36, -21, 10, 44, 74, -4, 51, -8, -14, 30, -44, 16, -24, 43, -6, 3, -18, 13, -18, -40, -15, 21, -42, -19, -26, 53, 45, 36, -25, 24, -33, 5, 39, 24, 14, 37, -5, 30, 70, -12, 6, 43, 15, 3, 61, -26, -39, 11, -19, -10, 34, 45, -46, 12, -39, 21, 13, 13, -15, -5, -22, 45, 10, 26, 28, 15, 44, 1, 27, 33, 38, 37, 57, 7, -27, -22, 65, 14, -17, -4, 52, -38, -12, -33, 41, 1, -50, 9, -10, 54, 60, 16, 32, -11, -24, -1, 13, 26, 1, 17, 81, -17, 17, 21, 39, 56, -46, 41, 36, 44, 14, 42, -33, 9, 19, -29, -35, -29, 34, 59, 2, 57, -30, 34, 35, 25, -3, 10, 26, -15, -10, 5, 2, 3, 6, 47, 4, -8, -37, 45, 48, -13, -11, 27, -6, 46, -1, -37, 33, 60, -21, 54, 23, 19, 60, 46, 30, -11, 
  19, -42, 7, 21, 70, -13, 12, -43, -21, 23, -2, 41, -31, -1, -16, 5, -14, 16, 13, 0, 16, 68, -44, -1, 12, -35, -22, 78, 10, 20, 10, -38, -37, -8, -47, 38, 23, 1, -38, -33, -14, -54, 53, 45, 10, -17, -17, 19, 2, 32, 9, -38, 34, 43, -41, 22, -40, -31, -51, 40, 42, -24, -49, -10, 26, 19, 23, -18, 53, -52, 1, -24, -15, 26, 23, 45, 51, -31, 26, 24, 11, -36, 18, -20, 18, 6, -52, 37, 42, -17, -32, 38, -22, -48, -38, -19, 40, -15, 36, -32, 79, -20, 46, -48, 15, -33, 0, -34, 28, 40, -34, 22, -22, 7, 37, -50, 50, -30, 5, 11, 43, -35, -1, -22, -32, -17, -20, 23, -32, -9, 9, -8, -4, -5, 47, 27, 65, -49, -22, 73, -51, 9, 19, -35, 11, 62, 76, -7, -22, 50, 21, 20, -14, 47, 36, -11, -7, -11, 35, 20, 27, 34, -55, -30, 77, 20, 1, 46, 28, 27, 43, -21, -42, -24, 2, -6, -5, 43, 19, -1, 11, -21, 38, -27, 18, 25, 16, 3, 18, -39, 36, 4, 20, -34, 15, -24, 16, -10, 41, 36, -2, 1, 50, 41, -33, -29, -22, -48, -17, 21, -36, -7, 10, 28, 2, 48, 17, 2, -5, 2, 23, -9, 22, -43, 18, 29, -36, -2, 47, -23, 23, -22, 1, 1, -8, -9, 38, -35, 49, -16, 37, 52, -4, -47, 72, -39, 8, -3, 21, 25, -16, 21, 42, 26, -10, -26, 18, 2, 2, 22, -7, -25, -25, 39, 42, -9, -3, -3, -9, -33, 66, -24, -7, 32, 22, 33, -26, 16, 15, -66, 19, -10, 23, 11, 23, -1, -36, -29, 10, 9, -57, 16, 73, -20, 55, 68, 33, -29, 43, 15, -18, -4, 30, 37, 14, -17, 68, -19, 10, 7, 17, -48, -49, 2, 10, 64, 48, -20, -10, -17, 14, -19, -29, -11, 52, 22, 48, 53, 50, -13, 40, 20, 2, 22, 58, 56, 17, 42, 35, 29, 33, -41, 1, -45, -38, 37, -14, -9, 53, 33, -29, -33, -21, 38, -11, 21, 39, -2, -1, 18, 38, -29, 16, -4, 36, 6, 28, -31, -4, -3, 1, 24, 43, 7, -2, 27, -7, 31, 31, 59, 9, 45, -14, -38, -30, 54, 12, 51, 13, 20, -12, 8, 79, 45, 9, -1, -5, 15, 47, -30, 22, 2, 17, -6, 37, 40, -6, -39, -5, -14, -12, 5, 14, 32, 2, 27, -5, 34, -49, 58, 17, 12, 63, -1, 69, -24, 60, 51, 24, -25, 58, -2, 38, 67, 28, 17, -32, -13, 9, -21, -9, 23, 8, 53, -10, 61, 45, -20, -30, 72, -37, -24, -33, 16, 52, 0, 93, 16, 57, 54, -19, -19, 81, 29, 41, 11, 7, 36, -25, -4, 41, 21, -5, 49, -12, 75, 20, 54, -29, -18, -18, -16, 24, 32, 0, -25, 40, 7, 40, 52, 64, 47, -34, 0, 44, 28, 44, 34, 24, 15, -20, -32, 23, -10, 50, -12, 26, 67, 4, 47, -16, 31, 
  46, 19, 35, -61, 78, -39, -26, 5, 32, -40, 30, 31, 46, -28, 10, 12, -30, 4, -32, 31, -27, 48, -24, 31, -2, 29, -22, 11, -8, 14, -1, -8, 23, 4, 5, 0, 1, -5, -16, -23, 42, -33, -33, -8, -41, 23, 15, -3, 15, 7, 23, 14, 28, 16, -54, -24, -8, 31, 29, 53, 42, 16, -45, -48, -23, -7, 6, 8, 41, -24, -10, -3, -21, 20, 11, 32, -4, -14, -44, -54, -39, -32, -25, 39, 39, 60, -31, -15, 26, 34, 22, 78, 28, 2, 6, -5, -22, 0, -12, 18, 18, -4, -3, 2, 3, 1, -13, 16, 52, -5, 30, -21, -3, -10, -14, -2, 26, 6, -51, 40, 6, -52, 19, 46, -12, 24, -18, 10, 46, 6, 22, 1, 35, 2, 55, -4, 28, -34, 44, 52, 9, -7, 13, 2, 18, -19, 46, 13, 20, 45, 35, 14, -39, -27, 3, 66, 12, -24, 2, -52, 30, 23, -39, 13, 23, -8, 7, 10, 47, 27, 49, 18, -5, -8, 25, 5, 26, 43, 19, -50, 7, -7, -5, -18, -52, 45, -9, -3, 3, 6, 2, -47, 41, -28, -54, 13, 40, -33, -33, 8, 44, -47, 15, 57, -56, -20, 50, -19, 47, 48, 22, -33, 46, 47, -36, 42, -42, 37, -36, 60, -5, 2, -49, -50, 40, 41, 1, 54, 76, -11, -13, 28, 33, -41, 6, -32, 31, 17, -12, 35, 18, 56, 41, -22, -16, 37, 34, -37, -6, 4, 2, 62, -5, -4, -22, 20, -16, 1, -28, 35, 53, 52, 50, 29, 54, -24, 47, 0, -36, 23, 70, -36, 18, 58, 28, -47, 15, -2, 25, -38, -2, -11, -12, 55, 30, 12, 22, -45, 15, 24, -49, 3, 48, 2, 25, 66, 33, -8, 23, 69, -7, -21, 43, -12, 13, 14, -14, 4, 25, -26, 51, 20, -42, -21, 13, 91, 31, -8, -39, -7, 12, -10, 21, 40, 51, 33, -10, 3, 85, 26, 46, 35, -58, -39, -16, 2, -9, 41, 25, -44, 56, -30, 52, 37, 20, 15, -24, 1, 52, 20, -52, -49, -51, -1, 30, -22, 62, 43, 42, -14, 44, -52, 30, 46, 26, -40, 41, -38, 13, -7, 42, 33, -9, 11, -10, -9, -38, -16, -57, 60, 26, -21, -46, -26, 17, 65, -30, -1, 21, -4, 21, 24, 58, 21, 36, 54, 28, 10, 44, 45, -27, 55, 29, -25, 18, 38, 1, -40, -36, 69, 4, 65, -25, -4, 47, -18, -32, 23, -11, 12, -36, -14, 31, 50, 77, -14, 58, 52, -18, 20, 55, 39, 41, 50, -13, -46, -4, -3, -3, -14, 6, 53, 11, 2, -2, -7, -18, -32, -29, 15, -35, -12, 31, -29, 74, 25, 18, 29, 9, -10, -41, -37, 29, 25, 10, 62, 25, 29, -25, 7, 48, 7, -18, 17, 39, 44, -22, 27, -26, 28, 22, 35, 24, 33, -3, 14, 39, -20, 10, 17, 42, 17, -35, -9, -15, -16, 6, 43, 3, -33, -20, 37, -2, 7, 51, 1, 39, 89, 35, 28, 14, -9, 
  -65, 0, 12, 56, -13, 35, 51, 53, 7, 35, 18, -19, -44, 49, 31, 28, -1, 44, -16, 17, -30, -30, 41, -39, 13, -2, -13, -54, 59, -1, 39, 42, -41, 8, 45, -16, 35, 0, -27, -7, 15, 26, 10, 29, 51, -16, 44, 17, 4, 24, -29, 43, 17, -24, 22, -5, 9, -27, 44, -5, 22, 4, -7, -12, -18, 35, -15, 51, -53, 9, 50, -6, 15, 28, 18, 44, -26, 17, 43, -7, 63, -22, -11, 24, -21, -4, 34, 2, 11, -14, 22, -56, -10, 42, 62, 24, -34, -27, 8, 8, -54, 79, -28, 35, -16, 71, 35, 19, -1, 9, 11, 44, 47, 6, 38, -18, -50, 23, 60, -66, 7, 4, -8, -24, -3, 22, 34, 33, 30, -8, 14, -16, -11, -21, 28, -45, -21, 12, -20, -64, 4, 41, -30, 31, 49, 15, -41, 49, 26, -8, -11, -46, -7, 17, -21, -24, -7, 5, 16, -10, 18, -14, 42, -3, -60, 46, 5, -14, 4, 36, 28, -25, -5, 59, -33, 13, -27, -19, 25, 19, -11, -13, -36, 19, 7, -48, -8, 22, -31, 28, -19, 43, 11, 6, 40, 34, 14, 46, 27, 23, -15, 56, -6, 0, 2, 57, -42, -31, -14, 12, 15, 15, -57, -6, -61, 42, -22, -15, 41, -34, -50, 24, -9, 57, -11, -24, 5, 43, -12, 2, -10, 12, -32, -12, -19, -18, 12, -5, 33, -42, -23, -32, -35, -8, -38, 2, 13, -33, 3, 36, -19, -14, 16, -34, 47, 28, 16, -30, -9, -5, 2, -18, -10, 0, -63, 30, -40, -15, 2, 25, 3, -44, -29, -37, 21, 22, -18, 5, -38, -3, -2, 9, 6, -56, -29, -5, -23, 18, 48, 32, 5, 3, -40, -18, 0, -40, 24, -18, -21, 13, -2, 51, -34, 17, 4, -54, -70, -13, -53, 1, -20, 19, 58, -52, 5, -4, -69, 14, 4, 56, 45, -46, 31, -40, -64, 15, -21, -43, -31, -1, -12, -15, 33, 34, -13, 44, -20, -19, 4, 36, -19, -15, 17, -12, 57, -4, 32, -18, -49, 23, 6, 40, 33, -32, 53, -9, -16, -29, -30, -3, -21, -31, -44, -33, 55, 8, 18, -16, 20, -37, -49, -50, 12, -12, -24, -34, 43, -5, 30, -65, -18, -48, -5, 39, 20, -20, 5, 1, -23, -21, -33, 33, -61, -4, -22, -26, 46, -34, 0, 16, -3, 20, -6, 26, 19, -27, -16, 22, 28, 16, -28, -44, -33, 27, -28, -3, 3, 23, 41, -51, 25, 24, -60, -5, -58, 5, -24, 36, 58, -18, 0, -1, 39, -48, -18, 3, 3, 36, -7, 9, -13, -55, 42, -56, -17, -1, -18, 24, -4, 10, -27, 28, -8, 5, -38, -38, -5, 14, -24, -29, 56, 45, -65, -38, 31, 1, 4, 21, 47, -36, -16, -1, -22, -57, 35, -19, 36, 0, 28, -30, -18, 7, -27, 22, -20, -58, -61, -26, 8, -7, 9, -20, 21, -19, -14, 15, -34, 7, -27, 15, 5, 52, 29, -19, 8, -7, 34, -38, -7, -35, -37, 36, 
  -31, -44, -5, 41, 72, 6, -4, 6, -9, 1, 22, -7, -27, 33, -1, -47, 16, 6, -38, -17, 14, 32, -61, 13, 11, 11, 0, 70, 6, 17, -6, 35, 42, 1, 32, -25, -8, 26, -12, 31, -29, -34, -6, -30, -36, -48, 16, 24, -6, -27, -24, 22, 37, 10, -7, -36, -10, 47, -41, 42, -22, -11, 28, -46, 5, -26, 16, 15, 38, -52, 7, -21, 42, 24, -22, 29, -15, -15, 33, 11, 27, -7, -17, 30, 6, 25, 20, 45, -9, 1, 11, 43, 17, -42, -25, -23, -18, -33, 19, -12, 36, 4, 5, -39, 28, 3, 28, -4, -39, 32, -22, 10, 0, -39, -33, -14, 57, 29, -1, 27, -5, -44, -38, 1, 44, 26, 12, -46, 15, -36, -53, 37, 46, 20, 23, 52, 79, 6, -27, 29, -23, 25, -7, 33, -40, 16, 25, -45, 33, 0, 36, 43, 29, 40, -49, 4, 19, -18, -37, 13, -35, -25, 17, -5, 47, 16, -9, 8, 42, 30, 21, 63, -38, -49, -19, 17, 8, 28, 79, -32, 19, 18, 34, 15, -42, 28, 20, 73, 12, 10, -28, -26, 6, -24, -16, 8, 72, 15, 28, -40, 46, -58, 1, 25, -57, -33, 39, 0, 7, 38, 47, -40, 44, 36, 58, 29, -7, -29, 13, 81, -8, -42, -58, -7, -16, 29, -21, -31, 77, -43, 63, -22, -20, -37, 17, 51, -30, 1, 33, -11, -9, -1, -22, -47, 9, 42, 31, 14, 2, -39, 4, 15, -9, 26, 32, -51, -9, 54, -46, -3, -11, 44, -6, 30, 57, 29, 4, 76, -13, -42, -13, -25, -35, 17, 27, -22, 49, -5, 30, -32, 30, 23, -5, 5, 39, 44, 1, 29, -26, -17, -63, -7, 34, -18, 17, 10, 17, -16, 1, 24, 18, -14, 9, -1, -10, 27, 67, 31, 2, -31, -19, -36, -40, -7, -20, 43, -5, 11, 5, -38, 15, 15, -15, 19, 53, 36, -10, -14, 56, -38, 42, 5, 24, -53, 22, -11, -12, 28, 45, 4, 0, -51, -20, -30, -70, -16, -31, -6, -15, -42, -43, -53, 6, 8, -39, 31, 61, 10, 27, 42, 24, -21, -3, 1, -45, 27, -3, -11, 49, 10, -2, -7, 7, 8, -5, 33, 8, 8, -42, 77, 10, 35, -32, 21, -19, -12, -15, 20, 40, 28, -21, 66, 51, -30, 64, 3, -16, -33, 27, -35, -5, -2, 6, 13, 35, -24, -44, -11, -24, 69, -18, 54, -24, -3, 33, 28, -49, 17, -22, 24, -24, -9, -10, 29, 9, -21, -18, -7, 2, 28, -26, 9, -20, -7, 30, -45, 34, -9, -7, -31, 10, -13, -38, 68, 59, -16, 9, -24, 14, 61, 4, 53, -4, 17, 46, 21, 67, 17, 52, 35, -39, 23, 9, 13, -31, -4, -10, 34, -11, 41, 40, 20, -21, 3, 36, 51, -2, -15, 2, 17, 22, 44, -44, 58, -23, 37, 69, 58, 54, 2, -9, 44, 18, -10, -13, -37, 69, -13, 27, -26, 29, 7, 24, 24, -28, 28, -9, 4, -15, 5, -40, -11, 
  -35, 11, -13, -25, 42, -55, 39, -7, 7, -5, -10, 23, -3, -45, -26, -26, -12, -38, -4, -26, -5, 37, -49, -22, -44, -25, -6, 60, -49, 3, -9, -33, 30, -32, 33, -45, 49, 27, 21, -19, 16, 8, -38, 28, 37, 4, -37, 1, -1, 13, 23, -30, 23, -35, 2, -15, -23, 38, -4, 14, -33, 4, 35, -34, -28, 22, 23, 32, -2, -29, 7, 8, 22, -50, 36, -9, 8, 21, 17, -31, -31, -36, -65, -32, 39, 59, 27, 30, -17, 46, 1, 66, -10, -19, -19, -11, -9, 5, 46, -5, 83, 0, 24, 13, 20, 24, 2, 33, 20, 43, -46, 10, 23, 13, 29, 12, 55, 0, -47, 2, -18, 13, -25, 9, -31, -14, -41, 15, 34, 4, -50, 30, -30, -23, 4, 66, 66, -40, 29, -18, -25, -28, 62, 25, -44, -17, 37, -21, -26, -4, -22, 15, 3, 32, -37, 20, -15, 40, -42, 7, -26, -8, -8, 22, 4, -21, -16, 25, 41, 22, 13, 21, -14, 20, 12, 35, 20, 16, 14, 36, 35, 34, -3, 20, -39, 48, -21, 37, 63, -1, 2, -30, 8, 35, -30, -28, 48, -10, 30, -40, 54, -49, -34, 49, -36, -43, -35, -32, -10, -14, 68, -19, 30, 0, 32, -37, -18, 26, -28, 7, 51, 40, -54, -50, -33, 25, -9, 29, 16, -5, 27, -34, 34, -45, 2, 37, 0, -4, 8, -21, 37, 45, 12, 30, 54, 6, -4, -6, 11, 24, -46, 18, 29, 15, -29, 5, 3, 45, 14, 8, 41, 33, 26, 27, 73, 13, -3, 15, 27, 36, 15, 38, 0, -26, 7, -5, 0, 18, 46, 4, -28, 33, -21, 24, -12, -13, -30, 10, -35, 27, -13, 45, 78, -31, -20, -17, 50, -17, 54, 30, -28, -10, -3, 4, 49, 27, 43, 8, 39, 38, 18, 3, -15, 19, -35, 77, 46, -11, -37, -8, -27, -7, -23, 21, 79, -31, 52, 53, 70, -15, 41, 42, -39, -6, 14, 16, -20, 17, -15, -16, -15, 3, 2, -55, 7, 35, -10, 7, 55, 18, -27, -27, -36, -11, -5, 3, 63, -28, 3, -1, -9, 9, 26, 51, 26, -6, 52, -35, 39, 25, 47, 1, -21, -44, 8, 47, -36, 35, -42, 63, -3, 11, 20, -45, 45, 19, 29, -3, 20, 34, -22, 7, 39, -32, -19, 48, 39, 32, -18, 29, 23, 28, 32, 40, 22, -9, 30, -6, 34, 55, 19, -6, -2, 36, -22, -34, -29, 36, 18, -3, 6, 6, -8, 31, 57, -1, 35, 9, 4, -14, 15, 29, 47, -13, 33, 28, -12, -9, 15, -41, -42, 45, 30, 51, -12, 48, -4, -6, -15, 11, 8, 19, -25, 38, 70, 38, 36, 19, -27, 65, -52, 38, 53, 30, -6, 1, 32, -10, 30, -6, -40, 45, -41, -4, 45, 12, 38, 6, -14, -6, -50, -4, 1, 0, 10, -15, 59, 0, 40, 31, 50, 38, -1, 13, -12, 38, 17, -14, -33, 46, 12, -22, -22, 37, 48, 10, 26, 33, -7, 23, -1, 45, 
  20, -7, -25, 16, 64, -8, 34, -13, 14, -37, 5, 18, -15, -45, 3, -32, 15, 2, -30, 5, 36, -4, -26, 36, 18, 37, 26, 23, -20, -38, 23, 3, 27, -48, 7, 26, 2, -62, 24, -51, 30, -13, -37, 33, -41, 36, 25, 31, 9, 25, -29, -38, 11, -8, 20, -12, -27, -15, -16, 81, 36, -32, -36, -41, 0, -19, 36, -4, 99, -3, -19, 21, 43, -30, 39, -43, 42, -28, 22, -38, -35, 11, -50, 20, 30, 26, -10, 49, 53, 41, -26, 95, -16, -45, 30, -20, 32, -5, 3, 28, 68, -41, -30, -33, -13, 3, 9, 18, 7, 35, -12, -32, 15, -40, 17, -2, 9, 17, -27, -8, 52, 7, -41, 26, -24, 28, -14, -3, -45, -15, 25, 20, -22, -42, -23, -9, 15, -22, 11, 20, -29, 17, 15, 5, -10, 49, 56, -23, 25, 43, 47, -15, 30, 47, 14, 24, -29, 22, -51, 13, 9, 42, 14, 22, 33, -32, 50, -12, 15, -5, -3, -4, -44, -8, 26, -38, -27, 56, -18, 4, 74, -14, 22, -29, -36, 29, -10, 56, 35, 45, -5, 20, 25, 10, -21, -4, -11, -10, 48, 37, -15, -17, -27, 15, 23, -44, -22, -35, -16, 34, 23, -11, 19, 28, 18, 32, -12, -28, -33, 37, 49, 12, -27, -21, 7, 7, -27, 32, 21, -6, 32, 52, -11, -13, -27, 32, -8, -16, -29, 37, -21, 15, 33, 9, 69, 17, 5, 28, 46, 26, -26, 1, 50, 17, -51, -12, -71, 45, -12, -13, 30, 13, -20, 15, 34, -22, 6, 40, 12, 31, 78, -33, 32, 43, -36, -22, 24, 5, 39, -19, -29, 37, 31, 15, -19, 48, -30, -38, -8, 46, -47, -7, 80, -28, -10, 36, 9, 17, 29, 45, -43, -32, 12, -30, 47, 56, 64, 8, 15, 24, -19, 19, -29, -24, 12, 55, 11, 31, -22, -38, 19, -28, -16, -11, 15, 38, 41, -3, 45, -25, 41, 34, -28, -20, 32, 8, 50, 20, 48, -12, 31, -22, -28, -10, 5, -24, 32, -9, 59, -26, -2, -6, -45, 15, 24, 22, 37, -27, 57, 25, 24, -24, 1, 31, -38, 0, 10, -27, 61, 16, 54, -26, -16, -22, 2, 46, -24, -5, -15, 72, 38, 8, -3, -27, -14, 22, -59, -2, 37, -6, -8, 11, 50, 48, 67, 9, 23, 23, 17, 14, -13, 20, 43, 8, -13, 20, -8, -34, 18, 59, -25, 25, -32, -9, 55, -7, -53, 31, 26, 17, -50, 19, 63, 40, 35, 43, 57, -2, 13, -11, 79, -14, -19, 52, 24, 38, 38, -3, -3, -37, -4, 30, -45, 45, 51, 24, 38, 13, -9, 27, -48, -5, -3, 5, 57, 67, 66, 4, 40, -5, -12, 40, 30, 1, 47, -10, 55, 21, 39, 1, 12, -17, -13, 0, -9, 11, 6, -7, -25, 13, -4, -17, -17, 31, 18, 0, 32, -21, 39, -33, 51, 36, 48, 46, 15, 36, 52, 2, 42, 35, 23, -43, 41, 10, 17, 13, 35, 92, -12, 24, -13, 14, 
  44, -38, -15, -51, 38, 8, 35, 35, -36, 17, 45, 39, 3, -34, 21, -20, -25, 15, 6, 21, 35, -15, 1, 29, 3, 23, -53, 61, 28, -28, -60, -26, -5, -25, 7, 21, 34, -21, -1, -39, -5, 0, 46, 36, 43, -48, -27, 12, -52, 44, 22, 5, 25, 41, 11, 48, -36, -14, 4, 43, -28, -39, -17, 9, -9, 3, 13, -9, 86, -42, 20, -33, 15, 24, 29, -7, 12, 24, -40, 3, -19, 1, 7, 12, 51, 0, -29, 6, 28, 34, 0, 45, -2, -1, 3, -2, 61, 27, 27, 39, -6, -28, -47, 35, -36, -31, -3, 8, -14, -23, -22, -32, -48, 45, -48, -39, 77, 1, -31, 56, 8, 12, -2, 18, 46, -14, 3, -28, 2, 26, -10, 36, 2, -53, 7, 11, 93, -31, 20, 61, -42, 9, 41, -24, -38, 7, -4, 1, 3, 22, -6, 56, 7, 34, 27, 31, -3, -35, -19, 28, -7, 3, -48, 21, 81, -42, 22, 28, 40, -11, 45, -29, 19, -23, -29, -39, -25, -24, -1, -47, 18, 17, 1, 13, -21, -8, -55, 55, 43, 40, 7, -50, 13, -4, -20, -36, 7, -16, 41, 3, 54, -15, -9, 7, -10, 22, 27, 25, 5, 4, 45, -51, 78, 16, -21, 37, -32, 31, -2, 32, -27, 6, -22, 20, 18, -10, 35, 36, 33, -14, 27, -32, 40, -32, -24, -5, 16, -22, -4, 36, -27, 53, -1, -30, 31, 6, 9, 32, -41, 32, -34, 24, 17, -19, -5, 29, -51, -18, 22, -24, 32, 32, 50, 25, 31, -3, 6, -3, -10, -30, 33, -27, 30, 37, 9, 16, 43, 43, -25, -46, -26, -6, 4, 1, 27, 7, 26, 17, 14, 1, -7, 11, 63, 37, 59, 45, 53, -52, 30, 1, -36, 12, 1, 30, 23, 6, 8, 11, 33, -4, 6, 4, 16, 12, -15, 35, -1, -4, -23, -10, -48, 28, 3, -3, 16, 39, 14, 30, 39, 24, 23, -25, 15, -20, 9, -19, 40, 20, 21, -29, 26, 1, -22, 8, 18, 22, -30, 9, 56, -24, 23, -28, -57, -14, 34, 0, -6, -43, -1, 60, 6, -22, 43, 57, 25, 17, -6, 6, -16, 1, 21, -40, 51, 26, 44, 5, 30, 20, -6, 32, 4, -2, -9, 5, -31, 59, -37, 2, 42, -30, -6, 58, 102, 18, 33, -28, -39, -5, -4, 54, 3, -9, 14, 14, -46, 4, -44, -39, -1, 31, 9, 58, 55, -5, 32, 1, -31, 46, -14, 17, -33, 18, 31, 10, 33, -19, 22, 34, 13, -35, 55, -16, -6, 50, 68, -28, 29, -7, -35, 20, -38, -9, -35, 34, 7, 24, 1, -40, -31, -3, 5, -4, 31, 46, 56, -32, 56, -23, -19, 57, -52, 38, 6, -19, 23, 28, 81, 24, -37, -41, -25, -36, 1, 57, 16, 51, 46, -9, 36, -34, 16, -20, 28, 48, -14, -15, 16, -11, 90, -20, -11, -6, 38, -37, -23, -18, 43, 14, 13, 2, 28, -5, 2, 31, -4, 4, 31, 93, 28, 24, 1, 4, 
  40, -30, -11, -40, 75, -24, -29, -18, -25, -8, 27, -38, -18, -32, 27, -38, -7, -7, 16, -18, -32, 15, -15, -32, -30, -6, -7, 1, 26, -2, 38, -38, 36, -31, -33, -46, 55, -44, 46, 15, -22, -35, -17, 5, -23, 6, 14, -12, -62, 11, -38, -4, -11, 19, -46, 57, -15, -32, -28, 10, -27, 27, 6, -1, -37, 34, -25, 39, 9, -20, -17, -17, 40, -17, 23, 23, -21, -17, 30, -7, -27, -37, -38, -30, 62, 35, 16, 18, 26, -36, 26, 33, -41, -45, -35, -42, 17, 25, 7, 33, 71, -30, 2, 6, -24, 5, 44, -29, -31, 30, 31, -5, -43, 17, 14, 39, 68, 19, -56, 22, 56, -32, -39, 45, 15, -35, -2, 20, -21, -23, -50, -32, -34, -42, 48, 30, 32, -15, -16, 69, 28, -29, -14, -5, 16, 43, 40, -27, 4, 3, -37, 48, -9, -19, -32, 70, 45, 31, -11, -13, 30, 7, 7, -38, 45, 32, 33, 18, 0, -19, 24, 26, 6, -15, 30, -48, 1, 55, 60, 20, 39, 25, 33, 23, -20, -1, -25, 67, 9, 38, 22, -2, -28, 23, -27, 42, 61, -43, -7, -33, 46, -8, 16, -30, -22, 22, 29, 20, 24, 18, -13, 25, 60, 51, 1, 5, -47, -23, -29, 67, 31, -1, -58, -52, -24, 43, 25, 20, 49, -51, 11, 47, -11, 29, -11, 34, 3, -17, 7, 26, 50, 56, -1, 3, 42, 6, 30, 43, -2, -12, 28, 35, 29, 40, 12, 3, -62, 60, 5, 35, 56, -5, -35, 12, 52, -1, 7, 32, -28, -16, 13, -22, -33, 36, 36, -22, -38, 14, -26, -35, 13, 0, 10, 13, -21, -11, 35, 17, -39, -24, 17, 15, 77, 11, -7, 66, 18, -33, -18, 13, -54, -26, -14, -19, -7, -12, 51, -30, 16, 11, -16, -6, -25, 4, -39, 67, 44, 37, -29, -6, -16, -28, 9, -23, 36, 36, -2, 24, 12, -50, 59, 18, 32, -10, 11, 34, -30, 52, 33, 5, 45, 6, 1, -23, -65, 56, -4, 52, 63, -29, 26, -13, -30, 41, 13, -20, 71, -18, 0, 17, 71, -18, 11, 43, -32, 20, 2, -16, 53, -8, -5, 4, 55, 7, -11, 42, 7, -5, -11, 0, 12, -18, 13, -40, -6, 65, 22, -18, 4, 29, 28, 29, 33, 3, 55, 21, -36, -18, 54, 31, -15, -11, 17, 45, -9, 21, -43, 14, -5, -9, 35, -26, 16, 26, 24, -27, -9, -14, -2, 17, 20, -27, 6, -12, 65, 0, 29, 42, -7, 7, 19, -13, 7, 25, 84, 13, -28, -43, -28, -30, -1, 3, -23, 54, -16, -14, -20, -6, 22, -5, -4, 7, 31, 1, -3, 24, 53, 6, 52, -8, -3, 3, 17, -21, 36, -12, 45, 2, 25, 31, 1, 31, -36, 40, 33, 57, 45, 10, -13, 11, 9, 11, 41, 62, -17, 4, 21, 13, 32, 13, 15, 51, -4, 33, 55, 53, -2, -13, 39, 24, 36, 13, -3, -10, 12, 49, 44, 94, -33, -27, -7, 39, 
  -49, 12, -28, 15, 14, -22, -5, 24, -3, 53, 30, -22, 35, -12, 11, 23, 52, 55, -21, -17, 22, -27, 6, 7, 46, -11, 28, -30, 27, 27, 12, 19, -41, 42, 12, 5, 9, 44, 44, 37, 48, 47, -21, -40, -11, -5, -20, 16, 53, 23, 52, 43, -8, -27, -13, -9, -8, -18, 17, 6, 9, 48, 18, 50, 15, -30, -6, 48, -26, 17, -4, -5, 5, 58, 2, -30, 37, 3, -1, 19, -11, -32, 3, 32, -12, -38, -13, 1, -12, -28, 37, -2, 34, 26, -17, 6, 8, 48, 6, -2, -50, -15, -32, -10, 27, 36, 11, 45, -25, -23, 4, 6, 54, -6, 29, -12, -46, 31, 2, -37, 2, -10, -10, -15, -16, 58, 14, -19, 6, -32, 17, -4, 45, 0, -4, -51, -38, -1, 5, -36, 56, 14, -41, 26, -25, 15, 19, -24, -2, -26, 46, 28, 27, -33, 56, -15, -2, 35, -19, 54, 16, 27, 49, 28, 1, -25, -37, -59, -52, 9, 7, -32, 2, 52, -5, -1, 24, -8, -29, 47, -29, -1, 24, 46, 1, -21, 7, 16, -54, 25, -20, 39, -14, 11, -18, 2, -40, 25, -46, 17, -66, 24, 21, -32, -19, -20, -22, -12, 38, 26, -50, 8, -22, -22, -46, -26, 0, -6, 43, -2, -25, 53, -10, 24, -12, 11, 21, 44, -47, -14, 10, -16, -48, 22, 4, -35, -20, 28, 29, -44, -9, -30, 10, 1, 12, 9, 47, 28, -2, -2, 34, -52, -53, 4, -20, -14, 38, 18, -21, 25, -51, 21, -40, -30, -48, -20, 25, 8, 30, -21, -46, 17, 36, -33, -34, 8, -6, 38, -42, 54, 38, -19, -20, -37, -23, -13, 21, 6, 45, -5, 24, 39, 1, -8, -54, -35, -47, 38, -30, -15, 6, 46, -12, 19, 47, -30, -11, -17, 23, -19, -1, 50, -4, 12, 25, -46, 1, -13, 32, -3, 58, 25, 32, -8, 13, 21, 6, -13, 4, 55, -18, -4, 40, 3, -50, 0, -19, 13, -57, 38, -30, 51, 21, 43, 36, -23, 17, 4, 20, -14, 28, 1, 26, 36, 51, 6, 18, 33, -20, -17, -69, 31, 3, 18, -16, 9, 7, -9, 28, -13, 14, -5, -29, -20, -41, -44, 48, -37, 63, -68, -49, 16, -3, 46, 27, -25, -9, 26, 7, -1, -19, 12, -28, -41, -59, 5, -5, 34, -34, -32, -33, -42, -25, -33, 25, 19, 28, -21, -3, -64, 35, 17, -22, 5, -2, -40, 58, -4, 25, 25, -6, -32, 7, -1, 1, -44, -45, 12, -18, -30, -35, 7, -15, 34, -42, 14, 23, -12, 49, -8, 56, -16, 41, -58, -39, -4, 14, -12, 0, -16, 37, -7, 47, 10, -14, -9, -43, -33, -29, -2, -13, -14, -74, 14, 3, -52, 1, -41, 1, -3, 3, 1, -7, -50, -1, 13, 18, 17, -5, -28, 18, -3, 22, -18, 22, 28, -5, 24, -45, -46, -29, 6, 38, 40, -7, 23, 17, -49, 23, -39, -25, 37, 38, -4, -50, 8, -28, -14, -33, 12, -1, 32, 
  3, -38, -8, -16, 9, -11, -11, -9, 3, 10, -8, 12, 12, -6, -32, 32, -34, 8, -16, 5, 20, 22, 16, 5, -10, 19, -50, 73, 5, -8, -47, -50, 49, -13, 12, 8, 24, -20, 40, 16, -7, -28, 11, 23, -6, -19, -21, -47, 22, -6, -19, 1, 47, 4, -2, 3, 12, 5, 39, 20, 25, -44, -2, -47, 35, -31, 5, -10, 59, -46, -37, -37, 51, 21, -2, -19, 22, 8, 2, 28, -36, 31, -28, -8, 52, -6, -48, 20, -12, -15, -41, 24, -47, -14, 32, -38, 8, -32, 21, -39, 14, -15, 44, 25, -1, 17, -19, -2, 6, 20, -30, 22, -24, 27, -14, -33, 32, -34, 27, 14, 10, -26, -30, 54, 18, 12, -48, 38, -32, 31, -34, -45, -22, -9, 37, -22, 7, -41, 45, 52, -35, 17, 54, -22, -36, 8, 44, -21, 40, 40, 9, 32, 31, 17, 5, 66, 8, 17, 41, 24, -2, 41, 22, 11, 29, -19, -2, -4, -24, -8, 11, -31, 15, 19, 27, 7, -23, 50, 71, -22, -6, -13, 32, 4, 12, 9, -5, 9, 50, 11, 19, 24, 13, -36, 1, 26, 74, -29, -36, 44, 30, -10, 43, 46, -41, 31, 26, 6, 26, 7, 29, -53, 35, 31, 16, 10, -10, -13, -48, 88, 22, 3, -46, -12, 24, -27, 33, -4, 16, 9, -3, 32, 47, 19, 27, -2, 11, 7, 18, 30, 3, 55, -48, 36, 58, 36, 3, 26, -39, 11, 1, 0, -3, -6, 3, 13, -33, 3, -52, -31, 53, -6, 51, 58, 22, -2, -22, 0, 30, 17, 56, 48, 17, 1, 1, -46, -11, 22, -21, -52, -35, -1, -39, 22, 20, -24, 0, 9, 15, 49, 15, -2, 32, -17, 61, 24, 72, 3, -20, -27, -7, -10, -22, -29, 3, 0, 74, -23, 28, -54, 39, -30, -10, 3, -3, 11, 51, 17, 6, -17, 22, 41, 8, 51, 4, -13, -15, -13, 45, -30, -19, 47, -16, -24, -31, 3, -37, 51, -4, -9, 36, -15, 39, 13, -56, -22, -30, 63, 2, -26, -20, -50, -7, -43, -49, 25, -2, 14, 51, -8, 19, -34, 23, -11, -11, 28, -13, -4, 6, -20, -30, 33, 46, 33, 44, 16, -38, 55, -17, 36, 34, 1, -12, -4, -30, 23, -15, 38, 47, -18, 45, 65, 47, -43, 48, -34, -6, -42, 11, 38, -14, -18, 26, 13, 29, 41, -48, -4, -13, 8, 2, 12, 5, 44, 7, 7, -12, 43, 20, -20, 23, -2, 50, 54, 36, -38, 3, 25, -2, 22, -16, 5, -39, 50, -6, 34, -8, -4, 46, -37, 20, 52, 17, 21, -13, 21, 44, 38, -50, -31, -48, -15, -16, 17, 11, -12, 15, -8, 53, 30, 25, 20, 8, 35, 15, -7, 26, -21, 6, 1, -43, 31, 1, 50, 26, 31, -21, 22, -16, -17, -39, 40, 37, -16, 38, -9, 52, 46, -10, 0, 53, 28, 10, 9, 60, 2, -30, 47, 22, -9, -6, 4, 8, 24, -1, 46, 20, -4, 9, 2, -22, -17, 
  54, -51, -35, -22, 73, 13, 9, -17, 36, -23, 6, 53, 21, 10, -10, 21, -32, 35, 19, -13, -24, 70, -8, 16, 23, 23, 30, 0, -50, 34, 15, 20, 48, -45, 14, 0, 0, -54, -40, -19, 36, -18, -36, -1, -44, 12, 0, -11, 12, 5, 26, 22, -13, -8, -3, -23, 23, 12, -43, 55, -33, -20, -54, -14, -43, 19, -18, -43, 69, -14, 16, -26, -19, -17, 44, -21, -5, -23, 0, -50, -49, -32, 14, 10, 79, -19, -19, -3, -38, -39, 17, 42, 19, 31, 0, 41, 15, -33, 30, 31, 87, -37, 54, 9, -2, 8, -22, -29, 8, 26, 26, 15, 6, -15, -45, -40, -5, 8, 6, 31, -11, -43, 1, -22, 22, 1, -1, 18, -25, -19, 14, -12, 20, -35, 32, 18, 6, -21, 2, 15, -32, -4, -13, 32, -22, 28, 52, -10, -37, 29, -16, 4, -13, -33, -36, 57, 18, -38, 30, -5, 25, 40, 16, 7, 70, 34, 26, 16, -18, -8, 8, 12, -17, -46, 69, 12, 13, -11, 56, 27, 31, 7, -24, 15, -4, 28, 2, 69, 61, 5, 14, -30, -33, 10, -40, 3, 78, 36, 60, 56, 9, -5, -41, 27, 24, -7, -17, 3, 32, 45, -15, 31, 28, 48, -27, 37, -37, -13, -19, 55, 16, 25, -2, -29, 32, -23, -29, 0, 14, -46, 14, -21, -20, -44, -30, -2, 11, -25, -32, 43, -17, 33, 31, 3, -2, -13, -45, -17, -49, -27, -1, 24, 52, -36, -27, -52, -66, 64, -20, 41, 42, 35, 2, 31, 93, -40, 19, 79, -23, -10, 62, 47, 12, -14, 5, 27, -1, 14, -15, -8, 1, 22, -17, 55, 9, -4, -5, 18, -53, 39, 20, 36, 27, 27, 37, -1, 66, 18, 34, 33, -25, -6, 35, 14, 34, 31, 25, -23, 16, -42, -13, -10, -53, 35, 9, 28, 8, -3, 29, -32, -55, 24, -53, -6, 81, -40, 28, -19, 74, -17, -11, 14, -54, -18, -11, -39, 33, -14, 24, 10, 40, 13, 10, 18, -27, 24, -7, 35, 18, 8, -13, -43, 12, 18, 24, 39, 86, 41, -4, 28, 55, 0, 6, 17, 24, -20, 39, -22, 11, 55, -21, 33, -6, 21, 19, 7, -15, -22, 2, 77, 47, 9, -31, -23, -1, 28, -37, 42, 32, -26, 34, 69, 27, 37, 2, 28, 14, -19, 14, 19, -21, 51, -24, -23, 13, -17, -11, -32, -4, 57, -17, 48, 38, 22, 42, -28, -46, 53, 34, 31, 4, 20, -17, 73, 6, 51, 37, 29, -1, 7, -2, -3, 51, 62, -2, -4, -2, -3, 32, -30, -38, -20, -34, 49, 50, 3, -23, -26, -20, 69, 38, 38, 31, 25, -4, -8, 74, 26, 18, 0, -49, -31, 18, 6, 11, 50, -8, 10, -15, -41, -21, -43, 43, -30, 40, 30, 18, 33, 29, -23, -37, 29, 20, 10, -3, 33, 43, 1, 44, 13, -18, 32, -11, -4, 38, -28, 10, -12, 21, 45, 46, -3, -4, 47, 19, 10, 36, 71, 2, -20, -24, 11, 
  16, 12, 8, 63, -23, 37, -33, 42, 42, 64, -11, -30, -13, -17, 47, 11, 53, 14, 61, -13, 2, 28, 19, -13, -28, 6, 18, -31, 28, -15, 26, 22, -1, -2, 45, -5, -28, -15, 32, -8, 8, 47, -11, 20, -22, 50, -34, 42, 6, 46, 40, 39, -33, 15, 33, -40, -1, 21, -10, -63, -12, 26, 29, -3, -2, 41, 33, -12, -67, 11, 29, 50, -4, -7, -10, -24, 43, -29, 40, -6, -10, 4, 0, 28, -28, 0, 14, -26, 5, 40, 5, -28, -18, 40, -13, 44, -3, 62, 38, 31, 23, 16, 12, -5, 18, 15, 18, -32, 30, 29, 20, 53, 66, -22, 59, -29, 11, -36, -11, -40, -37, -1, -32, 5, 52, -10, 14, 3, 21, 23, 21, -34, 43, -6, 32, -57, -61, -15, 11, -14, 11, 7, 9, 22, 17, -19, 2, 9, 20, -11, 3, -16, 49, -26, -31, -40, 21, 23, 52, 37, 6, -17, 19, 17, -21, -36, -33, -76, -23, 27, -7, -52, 51, 44, -43, 22, 17, 12, -11, 4, -45, 16, -11, -25, 37, 21, 17, -70, -3, 32, 26, 9, -49, 4, 47, 1, -14, -21, -7, 4, -44, 52, -41, -30, -2, 11, -8, -5, 32, -30, 6, 68, -41, -15, 21, -40, 53, 38, 35, -6, -55, -1, 3, -26, 42, -11, -16, -20, 28, 6, -33, -1, -42, -8, 37, -32, -21, -10, 26, 17, -61, -14, -36, 45, 21, 2, -4, -27, 4, -23, 2, -24, -36, -20, -7, 27, 37, -8, -15, -39, -12, -36, -38, 13, -9, 31, 9, -21, -21, -21, -1, -50, 5, -15, -33, 41, 36, 14, -8, 53, -21, 19, -8, -20, -7, -8, 30, 53, -9, 1, 34, 8, -11, -22, -67, 26, 24, 11, 4, 5, -26, 8, -13, 44, 10, -47, 7, 32, 9, 16, -31, 4, 76, 18, 7, -25, -59, 2, -31, 4, -18, -39, 53, 31, 6, 0, -1, -53, -75, 47, -45, -43, 23, 28, -39, -18, -11, -9, 30, 31, -34, 1, -43, 31, 28, 28, -35, -48, -48, 9, 11, -25, 51, 35, 39, -32, -33, 34, -4, 2, -22, -14, 14, -45, -32, -26, 12, -21, -47, -3, -24, 24, -29, -25, 18, -10, 35, -4, 50, -37, -41, 28, 3, 27, 52, -18, 32, 14, -5, -12, -24, 6, -11, -5, -22, -33, -2, 14, -9, -18, 41, -48, 21, -29, 34, 21, 10, 5, -21, 5, -4, 20, -13, -13, -45, 13, 40, -4, -6, -26, 67, 52, -15, 27, -49, 24, -33, -20, 8, -10, -1, 0, 34, -39, -3, 18, 25, 35, 22, -7, -20, -28, -15, -17, -6, -58, 11, 25, 48, 6, 16, 25, 60, -12, -13, 7, -60, -10, 23, -14, 47, 24, -37, 7, 4, 16, -33, 1, 13, -6, -26, 8, 40, 11, -34, -44, -30, 4, -27, -16, -1, 27, -34, -25, 61, -43, -32, 16, -7, -35, -22, -31, -20, -8, 34, 16, -44, -31, -27, -19, 24, 24, -32, 19, 23, -6, 1, -78, -4, -38, 16, -10, 
  -22, 36, -29, 56, -37, 58, 56, -26, 55, 5, -11, -28, 44, -2, 9, 24, -17, 1, -16, 22, -35, 6, 67, -10, 50, -25, 37, -11, 21, 31, 50, 19, -32, 36, -20, 6, 6, -9, 17, -11, -40, 70, 5, -25, 9, -6, 35, 44, 32, -33, 51, 4, 26, 7, 16, -40, 36, 14, -5, -72, -47, -11, 38, 31, 45, 19, 29, 42, -6, -3, 2, 35, -2, -10, 21, 38, 15, -5, -1, 65, 20, 37, 13, 60, 23, -36, 30, 3, 42, 24, 7, -42, 20, 30, 68, 22, -2, 59, 38, 41, -55, 32, -6, 5, -4, 19, -17, 36, -14, 25, -8, 18, 58, 24, -23, -21, -44, -9, 10, 26, 29, -21, 6, 26, -30, 51, 53, -27, -39, -38, -8, -12, 15, -6, 3, -18, -75, 28, 34, -11, 13, -18, -18, -5, -6, -29, -17, 5, -2, -8, -38, 10, 42, -55, 2, -17, 4, -3, 38, -18, 35, -31, 46, -48, 11, -18, 4, 9, -40, 27, -4, -57, 19, 18, 5, -2, 16, -37, -36, 33, -16, 31, -5, 58, -9, -55, 26, -8, -10, 18, 20, 38, -30, 18, 38, -27, -49, 6, -47, -11, -74, 15, 40, -32, 17, 64, -5, -24, 29, -44, -34, 66, -37, -31, 23, 1, 55, -20, 14, -17, -46, -7, 43, 0, 54, 40, 15, -40, -78, 33, -10, -3, -4, 4, -4, 15, -14, -16, 16, -28, 2, -20, -22, 31, -8, 41, 2, -40, -17, 47, 55, -5, -20, 11, 7, 54, 31, -56, 33, -32, -20, 16, 10, -81, -1, 42, -35, -5, 33, 41, -45, 14, 43, 15, 0, 22, -32, 11, 33, 76, 10, -8, 37, -53, -7, -52, -2, 35, 6, -61, 79, 36, -15, -43, -73, 5, -16, 4, 19, 2, 19, 39, -52, -26, 28, -28, -43, 59, -7, 46, -15, 43, 16, -14, 55, 0, -73, -34, 54, 32, 61, -32, 74, 7, -7, 30, -18, -43, -11, 52, -38, -33, 63, 69, -39, 37, 3, -31, -43, -8, -67, -17, -49, 13, 14, 2, -8, -50, -39, -14, 0, 53, 64, 18, 59, 7, -23, 13, -34, -33, -87, -7, -6, -19, 23, -4, 26, -27, 19, -28, 14, -37, -29, 14, -7, 2, -6, -61, 3, -47, -52, 9, 54, 29, 26, -24, 52, -23, 20, 7, -45, 14, -103, 39, -30, 13, 55, 16, -42, -1, 30, 8, -9, 52, 8, 41, 31, 51, 17, -52, -6, -31, -54, 17, -20, -14, 37, -55, 2, -44, 61, 14, -41, 8, -15, 20, -29, 25, 65, -11, -47, 22, 16, -31, 12, -7, -5, 28, 34, 46, 57, 8, 2, -8, -64, -51, -30, -28, 23, -28, 41, 25, 32, -1, -6, -51, -45, -3, -13, -7, 60, 43, -3, -18, 21, -59, -54, -19, -31, -22, -38, -20, 69, -46, -40, -26, 5, 0, -24, -25, 66, -9, 21, -49, 5, 27, -12, 6, -7, 6, -36, 5, 2, 13, -55, 8, 3, -19, -39, 0, -32, 25, -24, 11, -31, -78, -25, -61, 11, -63, 35, -23, 
  -19, -4, -8, -10, -43, 7, -25, -38, 32, 29, -1, -15, 26, -42, -39, 4, -11, 6, 32, 10, -3, -14, -42, -4, 43, -8, -5, -13, -35, -15, 14, 19, 16, -33, -18, 0, 10, 14, 15, 2, 15, 8, 33, 14, 8, -6, -1, 22, -8, 23, -6, 38, -47, 6, -29, 16, -39, 35, 29, 4, -10, -1, 9, -45, -43, -28, 19, 15, 39, 27, 51, 38, 13, -31, -27, 39, 13, -33, 5, -26, 40, -10, 11, -37, 47, -50, -30, 47, -18, 10, -41, -48, -16, -20, -38, 9, -32, 32, -33, 32, 60, 42, 17, 21, -15, -17, 35, -4, -22, -32, -31, -1, -24, 2, 29, -22, -24, 3, 2, 39, 4, -25, 17, -38, 18, 22, -41, -1, 31, 31, 33, 18, 1, 14, 1, -34, -43, 6, -20, -22, -44, -14, -38, -46, 1, -3, 11, 24, -27, -43, 25, 18, 3, 9, 34, 20, 7, 31, -35, 45, 13, -10, 22, 13, -12, -2, -20, -40, 28, -28, 27, -39, -22, -17, 0, 30, -33, -14, 32, -3, -29, 29, 1, 43, 8, 33, -13, 38, 3, -30, 24, -12, 5, -30, -8, -30, 20, 26, -11, -44, -17, -30, -24, -33, 4, 15, 3, -13, 17, -33, -30, 45, 49, -45, 14, 34, -35, -13, -24, -27, 45, -40, 40, -13, 20, -23, -2, -3, -4, -17, 37, 18, 34, 35, 27, 15, -42, -17, -1, -2, 25, -7, 34, 28, -34, -16, -47, -17, -25, 36, -15, 33, -27, 14, -35, 28, 29, -17, 34, -24, 37, -43, -11, -38, -2, 14, 32, -29, 42, 6, -15, 13, -43, -14, -23, 14, -38, 6, 8, 21, 12, -29, -13, 23, -41, 34, 28, -5, 44, -40, -20, 3, 26, -37, 11, 26, -42, -36, 17, -5, 1, 24, -39, -8, -30, 21, 7, -42, -22, 21, -44, 28, -19, -7, -4, 2, 29, 37, 22, 21, -3, 31, -43, 16, -22, -17, -43, 20, 40, -40, -30, -47, -5, -39, -11, 41, 11, -16, -9, 14, -41, -9, -44, 29, -10, -10, 38, 32, -46, -45, -39, -30, -2, 29, -35, 12, -24, 37, -30, 32, -47, -31, -6, 2, -3, -9, 9, 23, -23, 18, -29, 30, -20, 16, 19, -9, -27, -23, 43, -9, -5, -35, 30, 31, 38, 24, -14, -12, 4, -9, 22, -18, 30, -44, -44, -32, 30, 34, -32, 23, -16, -16, 15, 12, 17, -26, -9, -12, -19, 39, 15, 5, -45, -41, -6, -22, 39, 2, 28, 24, 47, 0, -11, -44, 6, -41, 25, 28, 45, 16, 25, 0, -15, -15, -32, 6, 34, -16, -9, -18, 51, 25, 10, -23, 36, 15, -5, -2, -26, 29, -28, 12, 14, -36, -13, -28, -21, -44, 22, -43, -7, -11, 28, -30, -6, -23, -41, 0, 16, 43, 2, -29, -21, 1, -30, 24, 34, -25, -36, -10, -19, -33, 19, -18, 43, -32, -17, 13, -16, -35, 31, 29, -18, 28, 16, 22, -5, -33, 14, 36, -16, -11, -17, -15, -1, 5, 4, -6, -32, 37, -5, -3, 
  58, 40, -16, -41, 49, -48, 28, -46, 28, 20, -8, -29, -3, 3, 37, 16, -20, 31, -11, -31, 38, -25, 19, 10, -31, 37, -14, 49, -10, 12, -43, -22, 34, -7, 39, 15, 3, 33, 11, -31, -22, 5, -9, -42, -22, -6, -24, -33, 31, -24, -15, -29, -14, -15, 5, 9, -16, 17, -28, 2, -17, -49, -24, -36, 22, 18, 33, -22, 59, 29, -8, -32, -24, -54, -3, 16, -38, 34, -20, -30, -50, -10, -26, 24, 21, 22, -1, 30, -11, 17, 22, 71, 12, -38, -15, -39, 50, -19, 16, 6, 47, 24, 20, 16, 27, -31, 45, 42, -30, -42, -30, -47, -48, 18, -40, -37, 10, 9, -34, 26, -14, 25, 40, 29, 2, 9, -31, 11, -34, 33, 15, -34, 3, -5, 12, 42, 71, -1, -28, -1, 30, 36, 21, -4, -49, 45, 36, -17, 27, 28, 30, 43, -42, 35, -10, 67, -4, -14, -24, -40, 31, 29, 23, 36, 11, 19, 12, -12, 59, -39, 38, -3, 17, -2, 18, 29, 30, 3, 1, 31, 17, 10, -3, -32, -48, 51, -4, -17, 54, -13, 23, -42, 18, 33, -9, 35, 35, 14, -29, -20, 10, -27, 38, -2, 29, 7, -39, 43, 22, 24, 1, -39, 11, -30, 2, 18, 30, 16, 38, 62, 1, -26, 16, 28, -39, 0, -48, 26, 7, -42, 1, 14, 55, -1, 34, 9, 40, -34, -18, -45, -8, -12, 20, 24, 16, 10, -30, -1, -18, 4, -36, -15, 9, 32, 9, 5, 22, -19, -55, -12, 49, -28, 15, 31, 75, -43, 50, 45, -26, 3, 24, 8, -3, 44, 11, -27, 5, -39, -33, 1, -51, 29, 32, 56, -9, 3, 23, 32, 31, 6, 24, 2, 64, -1, 16, 32, 56, 34, 32, -5, -1, -11, 17, -32, 33, -6, 21, -44, -18, 38, 45, -20, -55, -13, 8, 86, 40, 33, 23, 29, -27, 45, 7, 52, 1, -21, 57, -7, 42, -30, 19, -3, 1, -27, -4, -11, 46, 30, -14, 38, 7, 30, 30, 10, -3, 40, 0, 52, 0, 8, -11, -8, -58, 48, -13, 40, 74, 47, 76, 28, 43, 35, 2, 29, 6, 7, 4, -13, -20, 55, 25, 28, 18, 20, -36, -27, -28, -11, -17, -1, 6, 8, -33, -41, 48, 14, -48, 56, 46, 5, 31, -3, 31, 33, -15, 56, 13, 15, 44, -32, 4, 41, -9, 39, 31, -32, -24, -10, 11, 42, -11, 25, 38, 15, 25, 8, -25, -30, -6, 15, 39, -31, 69, 71, 65, -40, -31, -13, -20, -18, -7, 6, 44, 59, 54, -9, 2, -30, 16, -22, -40, 19, -20, 40, 20, 8, -7, 2, -28, -27, -33, -16, -30, -18, 12, -30, 63, -1, -23, 42, -22, -1, 64, -5, -27, 44, 36, 49, -36, -26, 8, -41, -9, 13, 38, 63, 29, 49, -37, 37, 18, 23, 9, -11, -30, 2, 1, -12, -3, 23, 32, 33, -13, -22, 34, -23, 6, 36, -19, 12, -6, -9, 1, 7, -27, 42, -29, 17, 39, -26, 49, 26, 
  10, -30, 13, -45, 69, 11, 30, -6, 31, -7, 13, 13, 46, -19, 21, 19, -45, -13, -50, -22, -40, 26, -49, -9, -38, -39, -39, 0, -9, -3, -30, -34, 12, -9, -26, 15, 13, 1, -37, -30, -18, 1, 48, -18, 9, -31, -33, -31, 32, 20, 29, 1, 45, -3, 3, 50, 31, 35, -16, 27, 0, -7, 30, 5, 14, -44, -21, -51, 38, -1, -33, -26, 4, 22, -29, 30, -28, 6, -49, 36, -39, 32, -24, 42, -8, 64, -32, 50, -4, -21, -8, 80, -45, -30, -11, 26, 2, -20, 8, -1, 53, 15, 12, -2, 21, -6, -20, -1, 42, -26, 31, -27, -13, 12, -1, -21, -13, -14, -41, 58, -3, -16, 25, 42, 16, 8, 1, -9, -21, 24, -8, -6, 14, 20, 36, -11, 18, -23, 38, 53, -43, -26, 2, 16, 14, 32, -5, 19, -9, -20, 24, 32, -21, 42, -3, 26, -15, -21, 28, 10, -30, -6, 19, 36, 29, -18, 54, 65, 45, -15, 3, 5, -33, -8, -14, -25, 22, -4, 64, 26, 25, -37, -22, -30, -54, 17, 20, 57, 48, 31, -7, -3, 2, -5, 25, 29, -11, 7, 7, 24, 73, -41, 30, -13, 10, 25, 50, 32, -21, -8, 25, 9, 40, 3, 40, -28, -11, 45, -22, 7, 48, -32, 3, 19, 12, -9, -33, 12, 4, 14, 82, -1, 64, -8, 41, 25, 13, 12, 15, -11, 31, 15, 15, -29, 75, 6, 29, -8, 21, -19, -42, 47, 49, 11, -9, -58, -10, 36, -16, 0, 36, -16, 40, 21, 57, -45, -21, 68, 4, 7, -5, 46, 29, 31, -26, 17, 10, -16, -14, 4, -40, 13, -29, 26, 14, 10, 34, -12, -3, 47, 0, 51, 69, 37, -17, 32, 0, -37, -7, -4, -33, -31, -1, 30, 33, -17, 49, -28, 51, -2, 38, 15, 0, 19, -34, 85, -23, -24, -34, 8, 8, 47, -42, 56, 27, 27, 62, 12, -10, 36, -3, 58, -30, 25, -10, -29, 43, 45, 56, 1, 0, -38, -1, -19, 1, -23, 15, 2, -1, -1, 18, -36, 9, -31, -30, 47, 5, 32, 57, 36, 54, 33, 24, 60, -8, -37, 7, 21, 27, 6, -34, 13, 30, -38, 9, -16, -10, 50, -17, 27, -4, 3, 32, -51, -21, 22, 10, 40, 22, 1, 8, 33, 12, -22, 28, -25, 26, -14, 3, -1, -34, -12, 59, -40, 43, 30, -13, -15, -23, 15, -13, -22, 49, -7, -26, -2, -9, 27, -42, 12, -11, 7, 14, 16, 37, -5, -22, -32, -35, -23, -8, -24, 40, 54, -15, -12, -6, 29, 14, 24, 8, 34, -19, 19, 35, 45, 12, 43, -44, 43, 11, -21, 24, -25, 65, -5, 43, 44, 46, -20, 4, -26, -7, 21, 38, 29, 5, 11, -9, -46, 37, -34, -49, 28, -39, 70, 21, 4, -13, -17, 1, 8, -35, -12, -1, -2, 10, 60, 33, 46, 19, -12, 37, -16, 34, -34, 14, 54, 50, 18, -21, 43, 36, 53, 6, 24, -18, 77, -34, -16, -2, 34, 
  30, 34, -47, -31, 32, -52, -2, -22, -22, -45, 25, 49, -35, 19, -6, -47, -18, 4, -49, 19, 6, 7, -46, 9, -35, -17, -9, 61, 15, 25, 0, -15, 35, 2, -23, -36, 45, -36, 17, -8, -10, 30, -23, 25, -9, 7, -19, 12, 15, 39, -24, 6, 11, -21, 7, 5, 19, -9, -32, 52, 1, 15, -18, 12, 36, -41, -20, -34, 68, 8, -23, 22, 54, -31, 8, 37, -22, -24, 25, -54, -20, -42, -12, 17, 26, -17, -57, 72, -3, 40, 27, 74, 25, 24, -19, 9, -21, -39, -13, 15, -3, -26, -27, -31, 46, 22, 36, 29, -5, -17, 2, -45, -9, -18, 26, 35, 50, 19, -31, 49, 7, -24, -11, 9, -31, 19, -22, 8, 37, 20, -24, -11, 27, 10, 20, 45, 81, 3, -6, 22, 19, 43, -4, -33, -25, 31, 20, -16, -24, 52, -13, 2, -33, 19, -39, 59, -10, -44, -44, 34, -40, 13, -42, 3, 0, 0, -13, -10, 0, -16, -14, -17, -30, 10, 39, -38, 28, 32, -1, -48, 5, 21, -23, -8, 18, 4, -46, 24, 59, -38, -35, 1, 36, 4, 22, -15, 10, 15, 55, 7, 49, 12, -11, -9, -15, 8, -28, -49, 14, 24, 68, -19, 2, 10, -9, 0, 30, -10, -5, 76, 0, 22, -8, -4, 25, 41, -55, -24, 43, 23, 64, -35, 49, -35, 0, -16, 31, 22, 25, -39, -12, -23, -8, -21, 73, -34, -9, -16, -30, 39, -44, 38, 2, -8, 9, 9, -55, 30, -25, -28, 24, 0, 51, 14, 69, -46, 45, 67, -7, -12, 17, -19, 18, -19, 44, -32, 32, 25, 29, -27, 28, 65, 40, 38, -26, 44, 25, -10, -27, -29, 28, 27, 83, -30, 59, 45, 75, 26, 49, 47, -16, -27, 52, -34, -20, 2, 26, 13, 14, 22, 4, -19, -37, -25, -14, 84, 37, 32, -28, -1, -58, 44, 19, 21, 91, 37, 21, -9, 50, -25, 49, -28, -28, 13, 40, 36, 24, 60, 17, 42, 20, -31, 21, -17, -49, 6, -28, 7, -6, 19, -41, 3, -24, 32, 21, 12, 43, 44, 64, 3, 43, -40, -4, 43, -44, -42, 43, 31, 64, 31, -41, -24, 14, 41, -29, -32, -46, 3, -29, 27, -25, 11, -31, -34, 21, 37, 11, 14, 7, 40, 39, 53, 29, 41, 40, -11, -16, -4, 48, -4, -5, 37, 11, 33, -32, 12, 9, 12, 10, 64, -26, 26, 15, 14, -24, 37, -45, 46, 36, 19, -33, -21, 16, 24, 64, -12, 47, -31, 25, -11, 56, 12, 43, 10, -22, -38, -20, 13, 2, 48, 39, 6, 34, 59, 19, 48, -21, -11, -3, 39, 40, 9, -12, 16, 64, 34, 57, -15, 38, 50, 5, 3, 46, 33, -20, 38, -5, -33, -7, 4, 23, -24, -24, -11, -21, 20, -6, 50, 7, -35, -39, -12, 21, 52, -10, 23, 1, 6, 62, -21, -21, 58, 1, -17, 11, 4, -23, 29, 58, 23, -10, -14, -27, 70, 17, 7, 50, 29, -29, 45, 45, -23, 
  -23, -23, 27, -37, -21, -37, -5, 12, -43, 14, 33, 18, 37, 40, 3, 12, -37, -1, -30, -28, 19, -39, 36, 31, -45, 8, 7, 21, -39, -33, -7, 20, -9, 33, -4, 30, 12, -31, -32, 26, 25, -18, -19, 17, 5, 37, 6, -30, -25, 19, 23, 20, -28, 6, 21, 34, -22, -21, -8, 9, -43, -26, -6, -32, -5, -47, -38, 16, -12, -34, 35, -59, 5, -41, 25, 1, -23, -36, -46, -18, 12, -40, 38, -43, -39, -33, -6, -14, -4, -29, 19, -45, 6, -38, 32, -46, -48, 8, 0, -14, 16, -3, 24, -25, -8, 22, 24, -16, -30, -30, -19, -47, 7, -28, -39, 2, -45, 19, -4, 2, -34, -31, 39, 12, 27, 3, -35, 15, 6, -25, 7, -13, -47, -23, 0, -1, 25, -26, -43, -2, -18, 16, -4, -48, -30, 31, 35, 29, 0, 16, -35, -16, -45, 18, 15, 29, 29, -3, -4, 27, -34, 22, -20, -3, -14, 19, 35, 10, 2, 1, -21, -22, -30, 23, -48, -26, -16, 37, 11, 20, 20, -41, -3, 48, 0, 19, 6, -33, -6, 21, -2, 2, -45, 10, -40, -54, -24, 27, -30, -34, -3, 6, 20, 34, -30, 7, 28, 22, -6, -36, -10, 2, -12, -4, 10, -13, -14, -31, 30, -53, -2, -43, -18, -31, 16, -17, 17, -7, -5, -23, -31, -43, 38, 40, -16, 11, -26, -20, 5, 7, -15, -12, 25, -42, 9, -3, 33, 31, -11, 38, -6, -1, -31, 26, 38, -26, 16, -11, 41, -23, 22, -33, 33, -13, -45, -1, -21, -41, 1, 13, -4, 19, 25, -24, 27, 5, 20, 7, 6, 13, 40, -38, 12, -30, 12, 17, 4, 3, 41, -38, -41, -51, -18, -13, -26, -11, 34, 16, -41, -40, 20, -41, -36, -24, 21, 19, -11, -43, -21, -35, 38, -15, 1, 24, -13, 30, -20, -30, -21, -28, 16, -41, 18, 23, 25, 41, -13, -23, 34, 14, 36, -29, -7, 1, -22, 10, -9, -3, 28, -20, 41, 38, -34, 12, 8, -25, 7, -23, -3, -45, 36, 29, -40, -14, -37, -30, -28, 1, -38, 28, 20, -23, -30, 16, -23, -45, -10, 9, -39, -2, -39, 27, 19, -30, 15, -27, -14, -49, -38, -33, -37, 28, -36, 13, -1, -21, -17, -15, 13, 26, -3, -22, 10, 39, -22, -1, -6, 41, 14, -40, 3, 16, -21, 17, -19, 13, 10, 15, 42, -7, -3, -20, -25, 23, -19, 40, -42, -41, 40, 22, 16, -1, 29, -30, 4, -10, 11, 10, -11, -25, 28, -46, 12, -35, -49, 39, 11, -5, -44, -34, -43, -37, -7, -45, 35, 26, -35, -32, -28, 9, 26, -28, 16, -1, -8, -41, -8, -34, 37, -2, 19, 39, 1, -33, 40, 31, 19, 13, 9, 32, 9, -45, 31, -31, 6, -17, 18, 19, -19, -27, 3, 39, 3, -38, -37, 18, 0, -2, -11, -42, 20, -6, -35, 23, 6, 23, -46, -39, -5, -36, -11, -41, 21, 7, -45, -7, 32, -4, 26, 40, 39, -7, 
  -30, 24, 11, -4, -12, 59, -9, -23, 27, -1, 5, 21, -43, 27, -27, -6, -10, 5, 20, 28, 1, -39, 37, 23, -13, 18, 49, -38, 47, 41, -13, -22, -41, 27, -23, 49, -20, 9, 22, 45, -2, 18, 34, -37, -31, 31, -26, 17, -2, 28, 54, -29, -41, 16, -10, -51, 13, 38, 27, -75, 1, 47, 23, 29, -25, -25, 47, 4, -14, 22, -32, 24, -31, 50, -25, -40, 27, 40, -16, -13, 17, 10, 50, 26, -7, -25, 31, -64, -13, 8, 59, -26, 36, 28, 4, 16, 14, 7, 33, 11, -2, 3, -22, 29, -2, 68, 13, 44, -17, 25, -13, -14, 33, 40, -3, -32, -9, 1, 47, -46, -38, 27, -23, -49, 39, 44, 37, 4, -2, 22, 46, -23, 12, -33, -45, -21, -48, 25, 20, -38, 31, 50, 10, 36, 53, -7, -16, -13, -4, -44, 36, -36, 29, -21, 56, 7, 21, 33, 29, 57, 24, 29, -22, -17, -2, 1, -60, 13, -37, 7, -1, 17, 45, 26, -26, 11, -5, -29, -17, 36, -1, 20, 36, 40, 64, -51, 49, -42, 10, -29, 26, 47, -36, 9, 14, 8, 13, -7, -50, -34, -47, 23, 28, -22, 22, 13, -29, 15, -13, 2, -11, 49, -11, 36, 22, 18, 53, -12, 67, 10, -26, -22, 8, 8, -19, 6, -18, 36, -6, -21, -37, 30, -4, 14, -38, 21, 38, -5, -30, -37, -14, -50, -3, -23, -37, 0, -12, -7, 56, -21, -23, -53, -61, -31, 8, -23, 71, -32, -2, 39, -45, -9, -6, 18, -70, -28, 1, 2, -19, -11, -49, 12, 21, 8, 22, 16, -33, 34, 16, 43, -8, -47, 16, -62, -43, 14, 32, 32, -12, -43, 7, -27, -26, -11, -15, -8, 5, 3, 12, -45, 14, -4, 4, 22, -29, -2, -10, 25, -16, 46, 12, 2, 27, 1, 25, -28, 19, 4, 43, 41, 29, -10, 69, 8, 14, 21, -45, -8, -78, -19, 12, -53, -19, 10, -37, -39, 20, -12, 1, 13, -40, -20, -41, 9, 66, -36, -31, 3, -8, 27, 0, 54, -4, -31, 31, -5, 20, 38, 4, 27, -70, 44, -49, 13, 32, 54, -55, 25, -47, -70, 34, 32, -53, 40, 26, -28, -31, 1, 14, -32, -25, -26, 54, -16, 27, -45, 55, 0, 0, 17, -36, -17, -37, 1, -31, -45, 49, -25, -1, -13, 47, -23, -49, 33, 5, 37, -36, 48, 2, 5, -28, -34, -7, 19, 21, -26, 38, 22, -34, 2, 17, -33, -26, -25, 9, 10, 16, 16, -32, -3, -62, 39, -5, -41, 34, -7, 30, 41, -8, -10, 24, 17, -18, -20, -21, -44, -19, -23, 23, -17, 12, -16, 26, 35, 3, -13, -65, 25, -57, -31, 2, 4, -33, -35, -19, -14, -39, -40, 39, 16, 19, 19, 44, 19, 36, 10, 23, -40, -39, 14, 27, -2, -20, -7, -13, -23, 9, -50, 12, 36, 5, 13, 22, -18, 4, -32, -43, -49, -8, 7, 29, 11, -6, 6, -6, 11, -39, -23, -19, 15, 17, 13, 
  22, 32, 38, -2, 39, -42, -30, 8, 24, -23, 50, 63, -25, -5, 35, -26, 8, -43, 28, -31, 0, 1, -69, 25, 44, -10, -19, 82, 27, -3, 3, 24, 7, -15, -9, -16, 57, -43, -7, 5, 36, -4, 26, 2, -26, -9, 15, -32, 0, -33, 24, -44, 0, -12, -13, 8, -38, 33, 32, 7, 19, 5, -16, -28, 21, 10, -45, 17, 13, 23, 43, -32, -11, 15, -43, -15, -12, -9, 27, 16, -28, -29, -40, -12, 11, 21, -15, 70, 25, 28, -56, 89, 16, -21, -16, 23, 49, 40, 12, -36, 24, -36, 35, 10, 42, -7, 20, 12, 55, 26, 18, 27, -24, 13, 20, 8, 67, -12, -33, -25, -8, 0, -38, 8, 24, -47, 3, -30, -12, 44, -57, -5, -42, -9, 16, 49, 78, -49, -12, 36, -34, 2, 49, 11, 17, 34, -5, 14, -33, 39, -25, 0, 6, -7, -14, 34, -32, -7, -11, 20, 11, 29, -47, -34, 19, 8, 6, 51, 20, -26, 43, 28, -31, -22, 43, -42, 54, 35, -3, -26, 49, -24, 11, -38, -18, 43, -51, 39, 71, 6, -40, -25, 47, -23, 17, 20, 32, -37, 16, 51, 26, 33, -20, 1, -33, -12, -3, -12, 40, -24, -8, 15, -7, -29, 13, 13, -40, -35, -57, 52, 26, 19, -48, 6, -36, 25, -58, 45, 39, 21, 72, 48, 36, -45, 22, 17, -22, -26, -22, -30, 27, -9, -9, -34, 93, -15, -33, 8, -47, 27, -10, 12, 1, -6, 10, -45, 33, 27, -12, 20, 0, 4, -15, 2, 76, -5, -4, 52, -26, -16, 20, -1, 18, 48, 11, -14, 4, 54, -4, -15, -39, 42, 32, 54, 28, -5, 26, 9, -31, 32, -18, -39, 44, 0, 51, 16, 80, -28, -20, 59, 12, -22, 36, -32, -12, 49, 85, -35, 19, 5, 7, 13, -13, -17, -9, 94, 70, -16, -38, 2, 20, 33, -4, 18, 20, 0, 64, 45, 43, -27, -11, 45, -15, -36, 40, 40, -18, 0, 35, -23, 10, -10, 3, -38, -28, 39, 17, -14, 33, 37, 40, -23, -37, 2, -5, -12, 28, 51, 42, -25, 22, 25, -13, -15, 32, -13, -9, 4, -22, 20, 50, -1, 7, -3, -28, 7, 42, -1, -20, 32, 19, 38, -32, 35, -12, 39, -9, 46, 14, -7, -15, -12, 92, 20, 8, 41, -25, -21, 32, -21, 42, 25, 25, 15, 34, -13, 41, 32, -24, -1, 27, 8, 60, 60, 15, -12, 2, 0, -3, -20, 0, -20, -5, -10, 69, -33, 69, 63, -30, -8, 38, -26, -27, 11, -5, 7, 1, 12, -33, -48, 3, 18, -15, 16, 77, 17, -29, -28, -42, 16, -2, -10, 36, 45, 12, 14, -1, 29, 39, 36, -49, 39, 40, 11, 42, 75, 23, -4, 25, 22, 6, 12, -30, -19, -37, 74, -7, 41, -37, 32, 10, 4, 7, 43, 19, 5, 3, -9, -6, 18, 10, 34, 35, -29, 41, 1, 44, 64, 9, 10, 62, 7, 13, 1, 14, 45, 7, 91, -21, 9, -2, -17, 
  -28, 44, -17, 22, -51, 31, -1, 23, -14, 63, 35, 20, 33, 42, 11, -19, 47, 8, -20, 56, -35, -50, 33, -10, -31, 17, 62, -5, -14, 52, -10, 54, -39, 35, 32, -35, -39, -5, 44, 50, -28, 47, 51, -24, 31, 3, 48, -30, 59, 25, 55, -4, 26, -53, -9, -17, 29, 11, 27, -46, 47, 52, 27, 55, -29, 3, 4, 41, 0, -6, -5, -35, -30, 57, 53, 41, 34, 31, 50, 5, -8, 20, 64, 2, -19, 7, 37, 4, 4, -17, 31, -32, -40, 10, -1, 12, 24, 24, -5, 37, -44, 25, 6, -9, 15, 53, 0, 33, 36, -32, -30, 53, 18, -26, 37, 21, -2, 32, 46, -45, -35, 41, -6, 52, -20, -9, 11, -3, -15, -29, -1, -6, 34, 5, -25, -39, -4, -24, -9, -36, -25, 46, -5, -18, 23, -27, -22, -6, -1, 3, 39, 13, 30, -1, 1, -21, -23, 35, 50, 60, -16, -42, -4, 11, -35, -38, -50, 10, 22, 58, 0, -40, 16, 7, 10, 12, 5, -26, 13, -10, -2, -17, -19, 6, -8, -32, -18, -53, 12, -35, -21, 41, 28, 48, -5, -25, 4, -13, -27, -32, -34, 18, -31, -45, -21, -28, -26, 47, -29, -21, 17, 59, -30, 3, -37, -20, 7, -6, -10, -56, 21, 26, 12, -1, 48, -18, 34, -27, -12, 16, -71, 38, -60, 44, -25, -33, 18, 47, -30, 2, -37, 15, -5, 10, -55, 43, 33, 1, -15, 3, 50, -1, 1, -2, 55, -23, 77, -41, 36, 8, -27, -38, -44, -41, -65, 3, -1, 1, -23, 11, -21, 45, 12, -24, -12, -19, 5, 2, -9, 53, 6, -41, 44, 7, -37, 17, 27, 16, 30, 20, -4, 22, -38, 24, 0, -17, 18, 17, 26, -7, 41, 17, 27, -18, 30, -52, -32, 30, -52, -5, 23, 39, 44, -28, 56, -52, -17, 1, 35, 34, 44, 30, -8, -53, -34, -5, 27, 10, -6, 54, -15, -3, 2, 19, -24, -32, -12, -8, -35, 30, 22, 22, 10, -3, 16, -44, 5, 29, -3, 37, -20, 33, -10, -32, -4, -38, -15, -30, -21, -31, 16, 37, -18, -53, -24, -11, 13, -9, 17, -20, -58, 16, 24, 23, 24, 18, 51, -42, -25, -2, -42, -21, 42, 17, 19, 7, 44, 13, 2, -9, -16, -13, -48, 4, 30, -44, 55, 5, -25, -43, -24, -45, 34, 52, -30, -32, 13, 35, 40, -28, -15, 22, -24, 25, -39, 52, -14, -46, -10, 19, 51, 6, -17, -19, 26, -32, -13, -43, 57, -36, 21, 45, 24, -2, -53, 15, -6, -20, 11, 14, 18, -49, -28, -14, 27, -41, -20, -7, 35, 14, 27, 21, 40, 6, -50, -42, -5, -20, 24, -54, 27, 28, -15, 1, 52, 3, -37, 25, -18, 16, -34, 3, -27, -56, 42, -12, 21, -38, -31, -10, 43, 23, -8, -51, -21, 20, -38, -11, -56, -23, -50, -2, -33, 45, 3, 28, 24, -10, -19, 27, -25, 28, 34, 24, -19, -4, 11, -13, -29, -29, 5, -39, 
  -45, -20, 6, 34, 14, 56, -20, 4, -24, -1, 12, 7, 52, -30, 28, 9, 19, 11, 2, 22, 21, -30, 2, -20, -15, 11, 49, -41, 23, -7, -2, -15, -31, -19, -12, 15, 7, 60, 22, 26, 6, 39, -40, 1, -23, -30, 19, -12, 72, -4, 17, 7, 9, 17, 60, 18, 17, 6, -15, 3, 3, 70, 30, 11, -1, -9, 50, 55, 6, 25, 6, 16, 33, 43, -32, 11, 17, -15, -10, -8, 42, -8, 22, 34, -23, -20, 14, 0, -31, -2, -6, -74, 49, -19, 29, 54, -1, -24, 42, 43, -70, 53, -15, -22, 6, 20, -4, 52, 3, -32, -8, 5, 30, 17, 42, 7, -13, 42, -5, -23, -42, 49, 25, -35, 30, -7, -19, 13, 11, -24, 59, 32, 51, 13, 23, -47, -54, -9, -1, -60, -30, -5, 23, -27, 34, -36, 14, -3, 13, 35, 36, -18, 22, 2, -20, 23, 7, -26, -21, 14, 20, 18, -12, -5, 12, 6, 12, 1, -25, 7, 16, -41, -13, 31, 38, 3, 42, -38, -45, 11, -21, 10, -55, -33, 43, -9, 26, -53, -21, 28, 12, 35, 5, -7, 47, 25, -45, 40, -43, -43, -52, 63, -1, -45, 45, -12, -20, -2, -43, 7, 3, -6, -64, 18, 8, -36, 8, -1, 40, -13, -39, 25, 35, 65, 11, 29, 36, 33, 9, -29, 15, -38, 3, 34, -20, 38, 8, 60, 16, -41, 9, -2, -23, -18, -4, 32, 20, -30, 21, -29, 48, -36, -51, 18, 54, 4, 52, -12, 10, -18, -40, 6, -37, -17, -28, 20, -53, -17, 36, 30, -24, 24, 33, 25, -35, -10, 24, 45, 23, 48, 37, -6, 50, -60, -8, 30, 1, 33, 1, 16, 25, 19, -30, 32, -28, 21, -14, 17, 7, -13, 60, 2, -3, 17, -36, -21, 20, -25, -41, 23, 17, -2, 47, -13, 35, -41, -49, 29, -1, -16, 38, 28, 42, -58, -27, -3, -41, -44, -33, 3, -3, 0, -11, 41, -15, 6, -33, 13, -62, -7, -56, -6, -50, 51, 2, -19, 9, 11, 13, -15, 22, 41, 55, 42, -6, 13, 35, -8, -37, 18, -33, -12, -44, -46, 57, 51, 15, -41, -41, -5, 14, 24, 0, 23, 9, -28, 34, -43, -10, -60, -34, 39, 34, 22, 1, 2, -20, -31, 26, 40, -6, -30, -43, 4, -42, -42, -7, -21, -62, -17, 17, -4, 36, 46, 43, -10, 6, -8, 2, 25, 32, -54, -26, 0, -29, 18, -10, -2, 29, 0, 16, 14, -36, 17, -42, -21, -45, -27, 18, 1, -20, 8, 12, -18, 10, 11, -43, -23, 25, 46, 14, -8, 38, -39, -42, -40, -13, 8, 17, -15, 17, 17, 31, -11, -47, -55, -63, 8, -25, -3, 37, 5, -12, -38, -15, -31, -14, -19, 42, -38, -4, 0, 1, 16, 18, -40, -33, -1, 48, -31, 13, -25, -25, 16, 52, -24, -52, 31, -37, -35, -14, -55, 36, -20, -23, 41, -18, -7, -25, 4, -1, 17, -11, 6, -12, -45, 11, -25, -15, 18, -38, 33, 
  -48, -17, -37, 11, -37, 33, 37, 4, 8, -8, 14, 38, 45, -13, 35, -9, 16, -4, -16, 3, 24, 3, 73, 26, -30, 1, 25, -21, 3, 53, -15, -9, 2, 27, -28, -13, -17, 34, -15, -21, 0, 50, 38, -20, -7, 54, 13, 26, 15, 30, 12, -24, 10, 40, -2, -26, 6, -11, -20, 15, -27, -16, 22, 18, -22, 57, 40, 44, -16, -30, 4, 33, -34, 59, 6, -17, 18, -28, 5, -20, 30, -23, 34, -24, 20, -39, 28, -12, 39, 48, 40, -25, -11, 6, 57, 31, 28, 1, -27, 38, -7, 34, -20, -4, 6, 49, 46, -23, -37, -23, -28, 2, -6, 26, -13, 36, -20, 33, 11, -27, -2, -19, -15, 4, -14, -21, -23, -5, -9, 37, 41, 31, 7, 4, -24, 11, -36, 47, -17, 11, -2, 26, -13, -23, -5, -39, -31, -5, 17, -29, -29, -16, 3, -24, 20, -40, -6, -45, -21, 42, -33, 1, 52, -32, -4, -37, 30, 2, -16, 36, -13, -40, 36, 29, -21, 11, 10, -36, 1, 42, -1, 33, -34, -22, 11, 10, 23, 25, 29, 22, 8, 20, 20, -7, -11, -20, 26, -23, 42, -36, -41, 5, -4, -41, 16, 36, 2, 7, -41, -24, -64, -14, 14, -36, -6, 9, 49, 35, -25, -50, -46, 17, 5, 50, 39, 39, -3, -22, 21, 5, 18, 10, -3, 31, 50, -4, 23, 38, 31, -42, -34, -45, -54, -15, 31, 48, 15, -5, 27, 19, -9, -37, 26, -14, 13, 57, -19, -23, 36, -25, 8, -6, 25, -21, 14, 14, -13, 6, 17, -34, -33, -15, 29, -45, 18, -7, 16, 16, 37, -2, -10, -45, 38, 6, -5, 27, -31, 35, 42, -8, 35, -7, 38, -26, -46, -12, 4, 8, -3, -8, 52, -18, 0, 35, 24, -29, -54, -13, 2, 6, 13, 33, 64, 38, 15, -1, -32, -26, 18, 37, 44, -16, 8, 25, 14, 23, -57, -63, 18, -11, -13, -38, -15, -27, 25, -34, -18, -55, -44, 21, 8, -10, -8, 4, 35, 41, 12, 16, 33, -12, 50, -26, 67, -41, 44, -25, -46, -21, -39, -33, -6, -26, 15, 21, 46, -19, -16, -22, -6, -25, -19, 32, -43, 12, -11, 12, -15, -55, 56, -30, -33, -37, 52, 5, 25, -57, -20, -17, 15, 32, 22, 24, -45, 15, 23, -53, 29, 33, 5, -14, 40, 18, -10, 30, -28, 41, 41, -17, 24, -3, 37, -42, 24, -34, -4, -12, 1, -21, -16, -3, 58, 38, 8, -53, -53, -42, -9, 5, 23, 40, -32, 27, -32, 3, -43, 13, -40, -38, 25, 40, 52, 31, 42, -15, 35, -39, 3, 48, 20, 22, -20, -50, 13, -32, -12, 14, -32, 24, -5, -14, 48, 21, 3, -1, 20, 4, -58, -22, 26, 36, -1, 32, 18, -58, 10, -73, 33, -31, 43, 22, 30, -21, -36, -42, -24, -18, 7, 34, 9, 3, -21, -35, -32, 30, 39, -5, -20, -46, 31, -27, 4, -37, 17, -47, 6, -50, -38, -40, -7, 7, -32, 11, 
  -42, 20, 30, 26, 2, 32, -6, 26, 32, 45, 27, 5, -17, 33, 1, -12, 9, -31, -7, 43, 10, -14, -7, 4, 27, 32, 3, -62, 32, -10, 29, 31, -23, 29, -16, 34, 0, 5, 2, 5, -21, 61, 37, 0, 32, -7, 46, -32, 27, -4, 35, 16, 27, -20, 30, 38, 37, -41, -7, -26, -37, -17, 33, 18, 41, -3, 10, -8, -28, 2, -8, -24, 45, 57, 45, 15, 10, 47, 2, 42, 10, -5, 47, 21, -30, -53, 32, -30, -28, 37, -17, -77, 4, -27, -11, 28, -17, 15, -5, -20, -52, 53, -28, 17, -20, 23, -43, -24, 15, 30, 55, 26, 60, 44, -25, -12, 23, 35, 38, -11, -11, -21, -1, -6, 27, 20, -22, 3, -52, -37, 10, -5, 31, 2, 3, -29, -26, -25, 28, -29, 14, 32, -13, 11, 2, 11, -1, 38, -37, -18, -22, -42, 48, 9, 27, 15, -38, -28, 44, -31, -5, 35, -11, 0, -7, 43, -28, -13, 11, 22, -36, 5, 17, 40, 17, -7, 7, -12, -36, 28, -4, 0, -27, -22, -3, -43, -4, -58, -46, 17, 10, 40, -21, 38, 50, 39, 2, -28, -1, -8, 10, 13, 31, -33, 35, 47, -10, -6, -36, -10, 12, 26, 10, 21, -33, 0, 36, 12, 23, -9, -25, -21, 12, -3, 29, -26, 12, -17, -32, 31, -12, 3, -14, -5, 13, 36, -16, -22, 30, -20, -62, -14, 11, 50, -2, 19, 45, 11, -11, 2, -10, 1, -30, 2, 15, 29, 29, -20, 17, 0, -50, -18, 28, 1, -32, -1, -12, -3, -18, 3, -59, 29, 24, -17, -47, 25, 5, -34, -17, -3, -13, -3, -7, -50, -29, 19, 29, 23, -25, -36, 18, 3, 6, -41, -42, -8, -1, -26, 7, 6, 2, 43, -41, -31, 32, 30, 26, 15, -39, -31, 19, 28, 22, -30, 6, -8, 6, -14, 20, 26, 9, -9, 7, 16, -50, -5, -12, 6, -31, -9, -34, -42, -2, 46, -6, 24, 18, -45, 23, 14, -21, -14, 16, 56, 53, 11, -26, -27, -21, 8, -37, 50, 64, -20, 32, -5, 20, -6, -55, -62, 6, 28, -11, -14, -24, 39, -10, -38, -55, -10, -6, 5, 23, 45, 32, 36, -26, -54, 5, 8, -50, 32, 34, 0, -2, 7, 13, -13, 43, -5, 27, 13, -65, -43, 6, 36, 39, -25, -62, -32, 22, 28, 37, -35, -14, -45, 20, 34, 7, 0, -20, 17, 30, -34, -12, 17, 19, -31, 43, -21, -28, -22, -55, -43, -21, -39, -28, 20, -14, 19, -41, 22, 9, -16, 5, -38, 33, 2, -16, -9, 31, 1, 15, 19, -43, -29, 18, 37, 61, -26, 39, -22, -10, -45, -5, -29, -9, 31, -27, -24, 39, 45, -51, 24, 5, 7, -32, 38, 35, 24, 44, -14, -36, -50, 23, 8, 29, -38, 0, 41, -31, -15, 3, -35, 18, -40, -1, -32, -21, -16, 28, -37, 14, 21, -23, -29, -11, -40, -37, -35, -19, 24, -14, -36, -41, -22, -40, 7, -19, 18, -18, -48, 
